digraph Tree {
node [shape=box, fontname="helvetica"] ;
edge [fontname="helvetica"] ;
0 [label="TP_ESCOLA_Publico <= 0.5\nsquared_error = 25439.144\nsamples = 480085\nvalue = 661.901"] ;
1 [label="SG_UF_ESC_SP <= 0.5\nsquared_error = 18144.154\nsamples = 123027\nvalue = 764.315"] ;
0 -> 1 [labeldistance=2.5, labelangle=45, headlabel="True"] ;
2 [label="SG_UF_ESC_PR <= 0.5\nsquared_error = 18005.099\nsamples = 89534\nvalue = 775.236"] ;
1 -> 2 ;
3 [label="Q002_G <= 0.5\nsquared_error = 17830.75\nsamples = 82748\nvalue = 779.306"] ;
2 -> 3 ;
4 [label="Q002_F <= 0.5\nsquared_error = 18476.964\nsamples = 55377\nvalue = 768.921"] ;
3 -> 4 ;
5 [label="SG_UF_ESC_MG <= 0.5\nsquared_error = 19439.99\nsamples = 32454\nvalue = 753.621"] ;
4 -> 5 ;
6 [label="TP_COR_RACA_Branco <= 0.5\nsquared_error = 19724.073\nsamples = 28851\nvalue = 748.644"] ;
5 -> 6 ;
7 [label="SG_UF_ESC_PI <= 0.5\nsquared_error = 20593.157\nsamples = 12862\nvalue = 736.84"] ;
6 -> 7 ;
8 [label="Q006_B <= 0.5\nsquared_error = 20532.176\nsamples = 12318\nvalue = 734.246"] ;
7 -> 8 ;
9 [label="SG_UF_ESC_RJ <= 0.5\nsquared_error = 20460.092\nsamples = 10862\nvalue = 737.976"] ;
8 -> 9 ;
10 [label="Q002_H <= 0.5\nsquared_error = 20115.274\nsamples = 8743\nvalue = 742.784"] ;
9 -> 10 ;
11 [label="SG_UF_ESC_AM <= 0.5\nsquared_error = 19939.33\nsamples = 8445\nvalue = 744.677"] ;
10 -> 11 ;
12 [label="Q006_C <= 0.5\nsquared_error = 19780.108\nsamples = 8276\nvalue = 745.979"] ;
11 -> 12 ;
13 [label="Q006_D <= 0.5\nsquared_error = 19514.525\nsamples = 6953\nvalue = 749.757"] ;
12 -> 13 ;
14 [label="SG_UF_ESC_DF <= 0.5\nsquared_error = 19144.353\nsamples = 5622\nvalue = 754.813"] ;
13 -> 14 ;
15 [label="SG_UF_ESC_CE <= 0.5\nsquared_error = 19003.678\nsamples = 5325\nvalue = 757.307"] ;
14 -> 15 ;
16 [label="SG_UF_ESC_SE <= 0.5\nsquared_error = 19063.907\nsamples = 4771\nvalue = 754.504"] ;
15 -> 16 ;
17 [label="Q006_M <= 0.5\nsquared_error = 19170.806\nsamples = 4485\nvalue = 752.437"] ;
16 -> 17 ;
18 [label="SG_UF_ESC_SC <= 0.5\nsquared_error = 19275.371\nsamples = 4310\nvalue = 750.933"] ;
17 -> 18 ;
19 [label="TP_COR_RACA_Preta <= 0.5\nsquared_error = 19200.49\nsamples = 4194\nvalue = 752.17"] ;
18 -> 19 ;
20 [label="Q002_E <= 0.5\nsquared_error = 19312.771\nsamples = 3541\nvalue = 755.239"] ;
19 -> 20 ;
21 [label="SG_UF_ESC_AP <= 0.5\nsquared_error = 20535.153\nsamples = 652\nvalue = 737.209"] ;
20 -> 21 ;
22 [label="Q006_I <= 0.5\nsquared_error = 20220.806\nsamples = 647\nvalue = 738.269"] ;
21 -> 22 ;
23 [label="Q002_D <= 0.5\nsquared_error = 19770.178\nsamples = 592\nvalue = 742.196"] ;
22 -> 23 ;
24 [label="Q006_A <= 0.5\nsquared_error = 20984.914\nsamples = 231\nvalue = 726.061"] ;
23 -> 24 ;
25 [label="SG_UF_ESC_RS <= 0.5\nsquared_error = 20218.384\nsamples = 223\nvalue = 729.955"] ;
24 -> 25 ;
26 [label="Q006_K <= 0.5\nsquared_error = 19625.365\nsamples = 214\nvalue = 732.71"] ;
25 -> 26 ;
27 [label="Q006_P <= 0.5\nsquared_error = 19798.825\nsamples = 205\nvalue = 729.171"] ;
26 -> 27 ;
28 [label="SG_UF_ESC_RN <= 0.5\nsquared_error = 19872.892\nsamples = 199\nvalue = 726.834"] ;
27 -> 28 ;
29 [label="Q006_G <= 0.5\nsquared_error = 19702.934\nsamples = 182\nvalue = 731.209"] ;
28 -> 29 ;
30 [label="SG_UF_ESC_TO <= 0.5\nsquared_error = 20457.133\nsamples = 149\nvalue = 722.148"] ;
29 -> 30 ;
31 [label="Q002_C <= 0.5\nsquared_error = 20329.072\nsamples = 148\nvalue = 720.811"] ;
30 -> 31 ;
32 [label="SG_UF_ESC_ES <= 0.5\nsquared_error = 21424.105\nsamples = 37\nvalue = 694.054"] ;
31 -> 32 ;
33 [label="Q006_J <= 0.5\nsquared_error = 19875.0\nsamples = 36\nvalue = 701.667"] ;
32 -> 33 ;
34 [label="Q006_F <= 0.5\nsquared_error = 14535.556\nsamples = 30\nvalue = 723.333"] ;
33 -> 34 ;
35 [label="Q006_E <= 0.5\nsquared_error = 12544.0\nsamples = 25\nvalue = 740.0"] ;
34 -> 35 ;
36 [label="Q006_O <= 0.5\nsquared_error = 8356.0\nsamples = 10\nvalue = 778.0"] ;
35 -> 36 ;
37 [label="SG_UF_ESC_PE <= 0.5\nsquared_error = 8454.321\nsamples = 9\nvalue = 768.889"] ;
36 -> 37 ;
38 [label="TP_COR_RACA_Não declarado <= 0.5\nsquared_error = 8800.0\nsamples = 8\nvalue = 760.0"] ;
37 -> 38 ;
39 [label="SG_UF_ESC_GO <= 0.5\nsquared_error = 9469.388\nsamples = 7\nvalue = 751.429"] ;
38 -> 39 ;
40 [label="Q002_B <= 0.5\nsquared_error = 10055.556\nsamples = 6\nvalue = 763.333"] ;
39 -> 40 ;
41 [label="SG_UF_ESC_BA <= 0.5\nsquared_error = 100.0\nsamples = 2\nvalue = 730.0"] ;
40 -> 41 ;
42 [label="squared_error = 0.0\nsamples = 1\nvalue = 740.0"] ;
41 -> 42 ;
43 [label="squared_error = 0.0\nsamples = 1\nvalue = 720.0"] ;
41 -> 43 ;
44 [label="SG_UF_ESC_AL <= 0.5\nsquared_error = 14200.0\nsamples = 4\nvalue = 780.0"] ;
40 -> 44 ;
45 [label="Q006_H <= 0.5\nsquared_error = 900.0\nsamples = 2\nvalue = 830.0"] ;
44 -> 45 ;
46 [label="squared_error = 0.0\nsamples = 1\nvalue = 800.0"] ;
45 -> 46 ;
47 [label="squared_error = 0.0\nsamples = 1\nvalue = 860.0"] ;
45 -> 47 ;
48 [label="squared_error = 22500.0\nsamples = 2\nvalue = 730.0"] ;
44 -> 48 ;
49 [label="squared_error = 0.0\nsamples = 1\nvalue = 680.0"] ;
39 -> 49 ;
50 [label="squared_error = 0.0\nsamples = 1\nvalue = 820.0"] ;
38 -> 50 ;
51 [label="squared_error = 0.0\nsamples = 1\nvalue = 840.0"] ;
37 -> 51 ;
52 [label="squared_error = 0.0\nsamples = 1\nvalue = 860.0"] ;
36 -> 52 ;
53 [label="Q002_B <= 0.5\nsquared_error = 13731.556\nsamples = 15\nvalue = 714.667"] ;
35 -> 53 ;
54 [label="SG_UF_ESC_BA <= 0.5\nsquared_error = 3600.0\nsamples = 2\nvalue = 620.0"] ;
53 -> 54 ;
55 [label="squared_error = 0.0\nsamples = 1\nvalue = 680.0"] ;
54 -> 55 ;
56 [label="squared_error = 0.0\nsamples = 1\nvalue = 560.0"] ;
54 -> 56 ;
57 [label="SG_UF_ESC_BA <= 0.5\nsquared_error = 13699.408\nsamples = 13\nvalue = 729.231"] ;
53 -> 57 ;
58 [label="SG_UF_ESC_GO <= 0.5\nsquared_error = 12691.358\nsamples = 9\nvalue = 704.444"] ;
57 -> 58 ;
59 [label="SG_UF_ESC_PA <= 0.5\nsquared_error = 13475.0\nsamples = 8\nvalue = 695.0"] ;
58 -> 59 ;
60 [label="SG_UF_ESC_PB <= 0.5\nsquared_error = 5056.0\nsamples = 5\nvalue = 708.0"] ;
59 -> 60 ;
61 [label="SG_UF_ESC_AL <= 0.5\nsquared_error = 6075.0\nsamples = 4\nvalue = 715.0"] ;
60 -> 61 ;
62 [label="squared_error = 0.0\nsamples = 2\nvalue = 720.0"] ;
61 -> 62 ;
63 [label="squared_error = 12100.0\nsamples = 2\nvalue = 710.0"] ;
61 -> 63 ;
64 [label="squared_error = 0.0\nsamples = 1\nvalue = 680.0"] ;
60 -> 64 ;
65 [label="squared_error = 26755.556\nsamples = 3\nvalue = 673.333"] ;
59 -> 65 ;
66 [label="squared_error = 0.0\nsamples = 1\nvalue = 780.0"] ;
58 -> 66 ;
67 [label="squared_error = 11475.0\nsamples = 4\nvalue = 785.0"] ;
57 -> 67 ;
68 [label="SG_UF_ESC_BA <= 0.5\nsquared_error = 16160.0\nsamples = 5\nvalue = 640.0"] ;
34 -> 68 ;
69 [label="SG_UF_ESC_PB <= 0.5\nsquared_error = 10075.0\nsamples = 4\nvalue = 595.0"] ;
68 -> 69 ;
70 [label="SG_UF_ESC_PA <= 0.5\nsquared_error = 100.0\nsamples = 2\nvalue = 610.0"] ;
69 -> 70 ;
71 [label="squared_error = 0.0\nsamples = 1\nvalue = 620.0"] ;
70 -> 71 ;
72 [label="squared_error = 0.0\nsamples = 1\nvalue = 600.0"] ;
70 -> 72 ;
73 [label="squared_error = 19600.0\nsamples = 2\nvalue = 580.0"] ;
69 -> 73 ;
74 [label="squared_error = 0.0\nsamples = 1\nvalue = 820.0"] ;
68 -> 74 ;
75 [label="SG_UF_ESC_MA <= 0.5\nsquared_error = 32488.889\nsamples = 6\nvalue = 593.333"] ;
33 -> 75 ;
76 [label="SG_UF_ESC_BA <= 0.5\nsquared_error = 21920.0\nsamples = 5\nvalue = 540.0"] ;
75 -> 76 ;
77 [label="SG_UF_ESC_PE <= 0.5\nsquared_error = 12275.0\nsamples = 4\nvalue = 485.0"] ;
76 -> 77 ;
78 [label="TP_COR_RACA_Parda <= 0.5\nsquared_error = 8266.667\nsamples = 3\nvalue = 440.0"] ;
77 -> 78 ;
79 [label="squared_error = 0.0\nsamples = 1\nvalue = 420.0"] ;
78 -> 79 ;
80 [label="squared_error = 12100.0\nsamples = 2\nvalue = 450.0"] ;
78 -> 80 ;
81 [label="squared_error = 0.0\nsamples = 1\nvalue = 620.0"] ;
77 -> 81 ;
82 [label="squared_error = 0.0\nsamples = 1\nvalue = 760.0"] ;
76 -> 82 ;
83 [label="squared_error = 0.0\nsamples = 1\nvalue = 860.0"] ;
75 -> 83 ;
84 [label="squared_error = 0.0\nsamples = 1\nvalue = 420.0"] ;
32 -> 84 ;
85 [label="SG_UF_ESC_ES <= 0.5\nsquared_error = 19645.873\nsamples = 111\nvalue = 729.73"] ;
31 -> 85 ;
86 [label="SG_UF_ESC_PE <= 0.5\nsquared_error = 19404.061\nsamples = 99\nvalue = 721.414"] ;
85 -> 86 ;
87 [label="Q006_E <= 0.5\nsquared_error = 20495.568\nsamples = 76\nvalue = 732.105"] ;
86 -> 87 ;
88 [label="SG_UF_ESC_PB <= 0.5\nsquared_error = 19315.237\nsamples = 52\nvalue = 749.615"] ;
87 -> 88 ;
89 [label="SG_UF_ESC_MS <= 0.5\nsquared_error = 20067.951\nsamples = 45\nvalue = 738.222"] ;
88 -> 89 ;
90 [label="Q006_Q <= 0.5\nsquared_error = 19973.175\nsamples = 43\nvalue = 744.186"] ;
89 -> 90 ;
91 [label="SG_UF_ESC_MT <= 0.5\nsquared_error = 19432.426\nsamples = 42\nvalue = 749.048"] ;
90 -> 91 ;
92 [label="Q006_O <= 0.5\nsquared_error = 19337.061\nsamples = 41\nvalue = 745.366"] ;
91 -> 92 ;
93 [label="Q006_J <= 0.5\nsquared_error = 19207.75\nsamples = 40\nvalue = 741.5"] ;
92 -> 93 ;
94 [label="Q006_L <= 0.5\nsquared_error = 19165.522\nsamples = 37\nvalue = 735.135"] ;
93 -> 94 ;
95 [label="SG_UF_ESC_AL <= 0.5\nsquared_error = 18998.438\nsamples = 32\nvalue = 728.75"] ;
94 -> 95 ;
96 [label="TP_COR_RACA_Amarela <= 0.5\nsquared_error = 20069.136\nsamples = 27\nvalue = 722.222"] ;
95 -> 96 ;
97 [label="Q006_H <= 0.5\nsquared_error = 19522.56\nsamples = 25\nvalue = 728.8"] ;
96 -> 97 ;
98 [label="SG_UF_ESC_GO <= 0.5\nsquared_error = 19022.222\nsamples = 12\nvalue = 753.333"] ;
97 -> 98 ;
99 [label="TP_COR_RACA_Indígina <= 0.5\nsquared_error = 9491.358\nsamples = 9\nvalue = 775.556"] ;
98 -> 99 ;
100 [label="SG_UF_ESC_BA <= 0.5\nsquared_error = 9875.0\nsamples = 8\nvalue = 785.0"] ;
99 -> 100 ;
101 [label="SG_UF_ESC_PA <= 0.5\nsquared_error = 7500.0\nsamples = 4\nvalue = 810.0"] ;
100 -> 101 ;
102 [label="squared_error = 0.0\nsamples = 1\nvalue = 840.0"] ;
101 -> 102 ;
103 [label="squared_error = 9600.0\nsamples = 3\nvalue = 800.0"] ;
101 -> 103 ;
104 [label="Q006_F <= 0.5\nsquared_error = 11000.0\nsamples = 4\nvalue = 760.0"] ;
100 -> 104 ;
105 [label="squared_error = 16900.0\nsamples = 2\nvalue = 750.0"] ;
104 -> 105 ;
106 [label="squared_error = 4900.0\nsamples = 2\nvalue = 770.0"] ;
104 -> 106 ;
107 [label="squared_error = 0.0\nsamples = 1\nvalue = 700.0"] ;
99 -> 107 ;
108 [label="squared_error = 41688.889\nsamples = 3\nvalue = 686.667"] ;
98 -> 108 ;
109 [label="SG_UF_ESC_GO <= 0.5\nsquared_error = 18915.976\nsamples = 13\nvalue = 706.154"] ;
97 -> 109 ;
110 [label="SG_UF_ESC_MA <= 0.5\nsquared_error = 19570.248\nsamples = 11\nvalue = 685.455"] ;
109 -> 110 ;
111 [label="SG_UF_ESC_RO <= 0.5\nsquared_error = 21580.247\nsamples = 9\nvalue = 675.556"] ;
110 -> 111 ;
112 [label="SG_UF_ESC_PA <= 0.5\nsquared_error = 24275.0\nsamples = 8\nvalue = 675.0"] ;
111 -> 112 ;
113 [label="squared_error = 1675.0\nsamples = 4\nvalue = 675.0"] ;
112 -> 113 ;
114 [label="squared_error = 46875.0\nsamples = 4\nvalue = 675.0"] ;
112 -> 114 ;
115 [label="squared_error = 0.0\nsamples = 1\nvalue = 680.0"] ;
111 -> 115 ;
116 [label="squared_error = 8100.0\nsamples = 2\nvalue = 730.0"] ;
110 -> 116 ;
117 [label="squared_error = 0.0\nsamples = 2\nvalue = 820.0"] ;
109 -> 117 ;
118 [label="SG_UF_ESC_BA <= 0.5\nsquared_error = 19600.0\nsamples = 2\nvalue = 640.0"] ;
96 -> 118 ;
119 [label="squared_error = 0.0\nsamples = 1\nvalue = 500.0"] ;
118 -> 119 ;
120 [label="squared_error = 0.0\nsamples = 1\nvalue = 780.0"] ;
118 -> 120 ;
121 [label="TP_COR_RACA_Amarela <= 0.5\nsquared_error = 11744.0\nsamples = 5\nvalue = 764.0"] ;
95 -> 121 ;
122 [label="TP_COR_RACA_Não declarado <= 0.5\nsquared_error = 8900.0\nsamples = 4\nvalue = 730.0"] ;
121 -> 122 ;
123 [label="Q006_H <= 0.5\nsquared_error = 10755.556\nsamples = 3\nvalue = 746.667"] ;
122 -> 123 ;
124 [label="squared_error = 0.0\nsamples = 1\nvalue = 820.0"] ;
123 -> 124 ;
125 [label="squared_error = 12100.0\nsamples = 2\nvalue = 710.0"] ;
123 -> 125 ;
126 [label="squared_error = 0.0\nsamples = 1\nvalue = 680.0"] ;
122 -> 126 ;
127 [label="squared_error = 0.0\nsamples = 1\nvalue = 900.0"] ;
121 -> 127 ;
128 [label="SG_UF_ESC_GO <= 0.5\nsquared_error = 18304.0\nsamples = 5\nvalue = 776.0"] ;
94 -> 128 ;
129 [label="SG_UF_ESC_BA <= 0.5\nsquared_error = 16400.0\nsamples = 4\nvalue = 740.0"] ;
128 -> 129 ;
130 [label="squared_error = 0.0\nsamples = 1\nvalue = 800.0"] ;
129 -> 130 ;
131 [label="squared_error = 20266.667\nsamples = 3\nvalue = 720.0"] ;
129 -> 131 ;
132 [label="squared_error = 0.0\nsamples = 1\nvalue = 920.0"] ;
128 -> 132 ;
133 [label="SG_UF_ESC_PA <= 0.5\nsquared_error = 13066.667\nsamples = 3\nvalue = 820.0"] ;
93 -> 133 ;
134 [label="squared_error = 12100.0\nsamples = 2\nvalue = 770.0"] ;
133 -> 134 ;
135 [label="squared_error = 0.0\nsamples = 1\nvalue = 920.0"] ;
133 -> 135 ;
136 [label="squared_error = 0.0\nsamples = 1\nvalue = 900.0"] ;
92 -> 136 ;
137 [label="squared_error = 0.0\nsamples = 1\nvalue = 900.0"] ;
91 -> 137 ;
138 [label="squared_error = 0.0\nsamples = 1\nvalue = 540.0"] ;
90 -> 138 ;
139 [label="Q006_H <= 0.5\nsquared_error = 4900.0\nsamples = 2\nvalue = 610.0"] ;
89 -> 139 ;
140 [label="squared_error = 0.0\nsamples = 1\nvalue = 680.0"] ;
139 -> 140 ;
141 [label="squared_error = 0.0\nsamples = 1\nvalue = 540.0"] ;
139 -> 141 ;
142 [label="Q006_N <= 0.5\nsquared_error = 8277.551\nsamples = 7\nvalue = 822.857"] ;
88 -> 142 ;
143 [label="Q006_O <= 0.5\nsquared_error = 7822.222\nsamples = 6\nvalue = 806.667"] ;
142 -> 143 ;
144 [label="Q006_F <= 0.5\nsquared_error = 8864.0\nsamples = 5\nvalue = 816.0"] ;
143 -> 144 ;
145 [label="squared_error = 0.0\nsamples = 1\nvalue = 840.0"] ;
144 -> 145 ;
146 [label="squared_error = 10900.0\nsamples = 4\nvalue = 810.0"] ;
144 -> 146 ;
147 [label="squared_error = 0.0\nsamples = 1\nvalue = 760.0"] ;
143 -> 147 ;
148 [label="squared_error = 0.0\nsamples = 1\nvalue = 920.0"] ;
142 -> 148 ;
149 [label="SG_UF_ESC_PB <= 0.5\nsquared_error = 20949.306\nsamples = 24\nvalue = 694.167"] ;
87 -> 149 ;
150 [label="TP_COR_RACA_Não declarado <= 0.5\nsquared_error = 20923.14\nsamples = 22\nvalue = 706.364"] ;
149 -> 150 ;
151 [label="SG_UF_ESC_MA <= 0.5\nsquared_error = 20741.95\nsamples = 21\nvalue = 699.048"] ;
150 -> 151 ;
152 [label="SG_UF_ESC_GO <= 0.5\nsquared_error = 21451.0\nsamples = 20\nvalue = 703.0"] ;
151 -> 152 ;
153 [label="SG_UF_ESC_BA <= 0.5\nsquared_error = 14143.21\nsamples = 18\nvalue = 708.889"] ;
152 -> 153 ;
154 [label="SG_UF_ESC_AL <= 0.5\nsquared_error = 11022.222\nsamples = 12\nvalue = 713.333"] ;
153 -> 154 ;
155 [label="squared_error = 14311.111\nsamples = 9\nvalue = 713.333"] ;
154 -> 155 ;
156 [label="squared_error = 1155.556\nsamples = 3\nvalue = 713.333"] ;
154 -> 156 ;
157 [label="squared_error = 20266.667\nsamples = 6\nvalue = 700.0"] ;
153 -> 157 ;
158 [label="squared_error = 84100.0\nsamples = 2\nvalue = 650.0"] ;
152 -> 158 ;
159 [label="squared_error = 0.0\nsamples = 1\nvalue = 620.0"] ;
151 -> 159 ;
160 [label="squared_error = 0.0\nsamples = 1\nvalue = 860.0"] ;
150 -> 160 ;
161 [label="squared_error = 1600.0\nsamples = 2\nvalue = 560.0"] ;
149 -> 161 ;
162 [label="Q006_H <= 0.5\nsquared_error = 14171.645\nsamples = 23\nvalue = 686.087"] ;
86 -> 162 ;
163 [label="TP_COR_RACA_Não declarado <= 0.5\nsquared_error = 14469.136\nsamples = 18\nvalue = 704.444"] ;
162 -> 163 ;
164 [label="Q006_O <= 0.5\nsquared_error = 13493.75\nsamples = 16\nvalue = 717.5"] ;
163 -> 164 ;
165 [label="Q006_L <= 0.5\nsquared_error = 13966.222\nsamples = 15\nvalue = 722.667"] ;
164 -> 165 ;
166 [label="Q006_E <= 0.5\nsquared_error = 14440.816\nsamples = 14\nvalue = 728.571"] ;
165 -> 166 ;
167 [label="squared_error = 26600.0\nsamples = 4\nvalue = 720.0"] ;
166 -> 167 ;
168 [label="squared_error = 9536.0\nsamples = 10\nvalue = 732.0"] ;
166 -> 168 ;
169 [label="squared_error = 0.0\nsamples = 1\nvalue = 640.0"] ;
165 -> 169 ;
170 [label="squared_error = 0.0\nsamples = 1\nvalue = 640.0"] ;
164 -> 170 ;
171 [label="Q006_F <= 0.5\nsquared_error = 10000.0\nsamples = 2\nvalue = 600.0"] ;
163 -> 171 ;
172 [label="squared_error = 0.0\nsamples = 1\nvalue = 500.0"] ;
171 -> 172 ;
173 [label="squared_error = 0.0\nsamples = 1\nvalue = 700.0"] ;
171 -> 173 ;
174 [label="squared_error = 7520.0\nsamples = 5\nvalue = 620.0"] ;
162 -> 174 ;
175 [label="Q006_H <= 0.5\nsquared_error = 16363.889\nsamples = 12\nvalue = 798.333"] ;
85 -> 175 ;
176 [label="Q006_E <= 0.5\nsquared_error = 11156.0\nsamples = 10\nvalue = 822.0"] ;
175 -> 176 ;
177 [label="Q006_N <= 0.5\nsquared_error = 5184.0\nsamples = 5\nvalue = 876.0"] ;
176 -> 177 ;
178 [label="Q006_L <= 0.5\nsquared_error = 2275.0\nsamples = 4\nvalue = 905.0"] ;
177 -> 178 ;
179 [label="Q006_F <= 0.5\nsquared_error = 1155.556\nsamples = 3\nvalue = 926.667"] ;
178 -> 179 ;
180 [label="TP_COR_RACA_Não declarado <= 0.5\nsquared_error = 900.0\nsamples = 2\nvalue = 910.0"] ;
179 -> 180 ;
181 [label="squared_error = 0.0\nsamples = 1\nvalue = 880.0"] ;
180 -> 181 ;
182 [label="squared_error = 0.0\nsamples = 1\nvalue = 940.0"] ;
180 -> 182 ;
183 [label="squared_error = 0.0\nsamples = 1\nvalue = 960.0"] ;
179 -> 183 ;
184 [label="squared_error = 0.0\nsamples = 1\nvalue = 840.0"] ;
178 -> 184 ;
185 [label="squared_error = 0.0\nsamples = 1\nvalue = 760.0"] ;
177 -> 185 ;
186 [label="squared_error = 11296.0\nsamples = 5\nvalue = 768.0"] ;
176 -> 186 ;
187 [label="squared_error = 25600.0\nsamples = 2\nvalue = 680.0"] ;
175 -> 187 ;
188 [label="squared_error = 0.0\nsamples = 1\nvalue = 920.0"] ;
30 -> 188 ;
189 [label="SG_UF_ESC_PA <= 0.5\nsquared_error = 14253.076\nsamples = 33\nvalue = 772.121"] ;
29 -> 189 ;
190 [label="SG_UF_ESC_BA <= 0.5\nsquared_error = 14836.095\nsamples = 26\nvalue = 748.462"] ;
189 -> 190 ;
191 [label="SG_UF_ESC_AL <= 0.5\nsquared_error = 15098.413\nsamples = 21\nvalue = 766.667"] ;
190 -> 191 ;
192 [label="SG_UF_ESC_PB <= 0.5\nsquared_error = 14619.0\nsamples = 20\nvalue = 759.0"] ;
191 -> 192 ;
193 [label="SG_UF_ESC_MA <= 0.5\nsquared_error = 14660.208\nsamples = 17\nvalue = 744.706"] ;
192 -> 193 ;
194 [label="SG_UF_ESC_PE <= 0.5\nsquared_error = 13975.0\nsamples = 16\nvalue = 735.0"] ;
193 -> 194 ;
195 [label="TP_COR_RACA_Parda <= 0.5\nsquared_error = 10791.837\nsamples = 7\nvalue = 717.143"] ;
194 -> 195 ;
196 [label="squared_error = 0.0\nsamples = 1\nvalue = 880.0"] ;
195 -> 196 ;
197 [label="Q002_C <= 0.5\nsquared_error = 7433.333\nsamples = 6\nvalue = 690.0"] ;
195 -> 197 ;
198 [label="SG_UF_ESC_MS <= 0.5\nsquared_error = 3200.0\nsamples = 3\nvalue = 760.0"] ;
197 -> 198 ;
199 [label="squared_error = 3600.0\nsamples = 2\nvalue = 780.0"] ;
198 -> 199 ;
200 [label="squared_error = 0.0\nsamples = 1\nvalue = 720.0"] ;
198 -> 200 ;
201 [label="squared_error = 1866.667\nsamples = 3\nvalue = 620.0"] ;
197 -> 201 ;
202 [label="TP_COR_RACA_Amarela <= 0.5\nsquared_error = 16009.877\nsamples = 9\nvalue = 748.889"] ;
194 -> 202 ;
203 [label="Q002_C <= 0.5\nsquared_error = 14893.75\nsamples = 8\nvalue = 767.5"] ;
202 -> 203 ;
204 [label="squared_error = 0.0\nsamples = 1\nvalue = 660.0"] ;
203 -> 204 ;
205 [label="TP_COR_RACA_Não declarado <= 0.5\nsquared_error = 15134.694\nsamples = 7\nvalue = 782.857"] ;
203 -> 205 ;
206 [label="squared_error = 17300.0\nsamples = 6\nvalue = 790.0"] ;
205 -> 206 ;
207 [label="squared_error = 0.0\nsamples = 1\nvalue = 740.0"] ;
205 -> 207 ;
208 [label="squared_error = 0.0\nsamples = 1\nvalue = 600.0"] ;
202 -> 208 ;
209 [label="squared_error = 0.0\nsamples = 1\nvalue = 900.0"] ;
193 -> 209 ;
210 [label="Q002_C <= 0.5\nsquared_error = 6666.667\nsamples = 3\nvalue = 840.0"] ;
192 -> 210 ;
211 [label="squared_error = 0.0\nsamples = 1\nvalue = 740.0"] ;
210 -> 211 ;
212 [label="squared_error = 2500.0\nsamples = 2\nvalue = 890.0"] ;
210 -> 212 ;
213 [label="squared_error = 0.0\nsamples = 1\nvalue = 920.0"] ;
191 -> 213 ;
214 [label="squared_error = 6496.0\nsamples = 5\nvalue = 672.0"] ;
190 -> 214 ;
215 [label="Q002_C <= 0.5\nsquared_error = 2285.714\nsamples = 7\nvalue = 860.0"] ;
189 -> 215 ;
216 [label="squared_error = 0.0\nsamples = 1\nvalue = 860.0"] ;
215 -> 216 ;
217 [label="squared_error = 2666.667\nsamples = 6\nvalue = 860.0"] ;
215 -> 217 ;
218 [label="Q002_C <= 0.5\nsquared_error = 19294.118\nsamples = 17\nvalue = 680.0"] ;
28 -> 218 ;
219 [label="Q006_G <= 0.5\nsquared_error = 14455.556\nsamples = 6\nvalue = 763.333"] ;
218 -> 219 ;
220 [label="Q006_E <= 0.5\nsquared_error = 5376.0\nsamples = 5\nvalue = 808.0"] ;
219 -> 220 ;
221 [label="squared_error = 0.0\nsamples = 2\nvalue = 780.0"] ;
220 -> 221 ;
222 [label="squared_error = 8088.889\nsamples = 3\nvalue = 826.667"] ;
220 -> 222 ;
223 [label="squared_error = 0.0\nsamples = 1\nvalue = 540.0"] ;
219 -> 223 ;
224 [label="TP_COR_RACA_Parda <= 0.5\nsquared_error = 16079.339\nsamples = 11\nvalue = 634.545"] ;
218 -> 224 ;
225 [label="squared_error = 0.0\nsamples = 1\nvalue = 460.0"] ;
224 -> 225 ;
226 [label="Q006_H <= 0.5\nsquared_error = 14336.0\nsamples = 10\nvalue = 652.0"] ;
224 -> 226 ;
227 [label="Q006_E <= 0.5\nsquared_error = 9343.75\nsamples = 8\nvalue = 622.5"] ;
226 -> 227 ;
228 [label="Q006_G <= 0.5\nsquared_error = 9822.222\nsamples = 6\nvalue = 606.667"] ;
227 -> 228 ;
229 [label="squared_error = 0.0\nsamples = 2\nvalue = 600.0"] ;
228 -> 229 ;
230 [label="squared_error = 14700.0\nsamples = 4\nvalue = 610.0"] ;
228 -> 230 ;
231 [label="squared_error = 4900.0\nsamples = 2\nvalue = 670.0"] ;
227 -> 231 ;
232 [label="squared_error = 16900.0\nsamples = 2\nvalue = 770.0"] ;
226 -> 232 ;
233 [label="TP_COR_RACA_Amarela <= 0.5\nsquared_error = 11155.556\nsamples = 6\nvalue = 806.667"] ;
27 -> 233 ;
234 [label="Q002_B <= 0.5\nsquared_error = 9120.0\nsamples = 5\nvalue = 780.0"] ;
233 -> 234 ;
235 [label="SG_UF_ESC_RN <= 0.5\nsquared_error = 1688.889\nsamples = 3\nvalue = 733.333"] ;
234 -> 235 ;
236 [label="SG_UF_ESC_PA <= 0.5\nsquared_error = 400.0\nsamples = 2\nvalue = 760.0"] ;
235 -> 236 ;
237 [label="squared_error = 0.0\nsamples = 1\nvalue = 740.0"] ;
236 -> 237 ;
238 [label="squared_error = 0.0\nsamples = 1\nvalue = 780.0"] ;
236 -> 238 ;
239 [label="squared_error = 0.0\nsamples = 1\nvalue = 680.0"] ;
235 -> 239 ;
240 [label="SG_UF_ESC_BA <= 0.5\nsquared_error = 12100.0\nsamples = 2\nvalue = 850.0"] ;
234 -> 240 ;
241 [label="squared_error = 0.0\nsamples = 1\nvalue = 960.0"] ;
240 -> 241 ;
242 [label="squared_error = 0.0\nsamples = 1\nvalue = 740.0"] ;
240 -> 242 ;
243 [label="squared_error = 0.0\nsamples = 1\nvalue = 940.0"] ;
233 -> 243 ;
244 [label="SG_UF_ESC_AL <= 0.5\nsquared_error = 8888.889\nsamples = 9\nvalue = 813.333"] ;
26 -> 244 ;
245 [label="TP_COR_RACA_Parda <= 0.5\nsquared_error = 5775.0\nsamples = 8\nvalue = 835.0"] ;
244 -> 245 ;
246 [label="squared_error = 0.0\nsamples = 1\nvalue = 720.0"] ;
245 -> 246 ;
247 [label="SG_UF_ESC_ES <= 0.5\nsquared_error = 4440.816\nsamples = 7\nvalue = 851.429"] ;
245 -> 247 ;
248 [label="SG_UF_ESC_PE <= 0.5\nsquared_error = 3104.0\nsamples = 5\nvalue = 876.0"] ;
247 -> 248 ;
249 [label="Q002_B <= 0.5\nsquared_error = 1000.0\nsamples = 4\nvalue = 900.0"] ;
248 -> 249 ;
250 [label="SG_UF_ESC_RN <= 0.5\nsquared_error = 622.222\nsamples = 3\nvalue = 913.333"] ;
249 -> 250 ;
251 [label="squared_error = 400.0\nsamples = 2\nvalue = 900.0"] ;
250 -> 251 ;
252 [label="squared_error = 0.0\nsamples = 1\nvalue = 940.0"] ;
250 -> 252 ;
253 [label="squared_error = 0.0\nsamples = 1\nvalue = 860.0"] ;
249 -> 253 ;
254 [label="squared_error = 0.0\nsamples = 1\nvalue = 780.0"] ;
248 -> 254 ;
255 [label="squared_error = 2500.0\nsamples = 2\nvalue = 790.0"] ;
247 -> 255 ;
256 [label="squared_error = 0.0\nsamples = 1\nvalue = 640.0"] ;
244 -> 256 ;
257 [label="Q006_E <= 0.5\nsquared_error = 29846.914\nsamples = 9\nvalue = 664.444"] ;
25 -> 257 ;
258 [label="TP_COR_RACA_Amarela <= 0.5\nsquared_error = 23297.959\nsamples = 7\nvalue = 608.571"] ;
257 -> 258 ;
259 [label="Q002_B <= 0.5\nsquared_error = 10666.667\nsamples = 6\nvalue = 560.0"] ;
258 -> 259 ;
260 [label="squared_error = 2500.0\nsamples = 2\nvalue = 510.0"] ;
259 -> 260 ;
261 [label="Q006_G <= 0.5\nsquared_error = 12875.0\nsamples = 4\nvalue = 585.0"] ;
259 -> 261 ;
262 [label="TP_COR_RACA_Não declarado <= 0.5\nsquared_error = 17066.667\nsamples = 3\nvalue = 580.0"] ;
261 -> 262 ;
263 [label="squared_error = 0.0\nsamples = 1\nvalue = 580.0"] ;
262 -> 263 ;
264 [label="squared_error = 25600.0\nsamples = 2\nvalue = 580.0"] ;
262 -> 264 ;
265 [label="squared_error = 0.0\nsamples = 1\nvalue = 600.0"] ;
261 -> 265 ;
266 [label="squared_error = 0.0\nsamples = 1\nvalue = 900.0"] ;
258 -> 266 ;
267 [label="Q002_B <= 0.5\nsquared_error = 3600.0\nsamples = 2\nvalue = 860.0"] ;
257 -> 267 ;
268 [label="squared_error = 0.0\nsamples = 1\nvalue = 920.0"] ;
267 -> 268 ;
269 [label="squared_error = 0.0\nsamples = 1\nvalue = 800.0"] ;
267 -> 269 ;
270 [label="Q002_A <= 0.5\nsquared_error = 30143.75\nsamples = 8\nvalue = 617.5"] ;
24 -> 270 ;
271 [label="SG_UF_ESC_MA <= 0.5\nsquared_error = 23200.0\nsamples = 7\nvalue = 580.0"] ;
270 -> 271 ;
272 [label="SG_UF_ESC_AL <= 0.5\nsquared_error = 17655.556\nsamples = 6\nvalue = 616.667"] ;
271 -> 272 ;
273 [label="Q002_B <= 0.5\nsquared_error = 17920.0\nsamples = 5\nvalue = 640.0"] ;
272 -> 273 ;
274 [label="SG_UF_ESC_PA <= 0.5\nsquared_error = 17900.0\nsamples = 4\nvalue = 670.0"] ;
273 -> 274 ;
275 [label="SG_UF_ESC_PE <= 0.5\nsquared_error = 400.0\nsamples = 2\nvalue = 600.0"] ;
274 -> 275 ;
276 [label="squared_error = 0.0\nsamples = 1\nvalue = 620.0"] ;
275 -> 276 ;
277 [label="squared_error = 0.0\nsamples = 1\nvalue = 580.0"] ;
275 -> 277 ;
278 [label="squared_error = 25600.0\nsamples = 2\nvalue = 740.0"] ;
274 -> 278 ;
279 [label="squared_error = 0.0\nsamples = 1\nvalue = 520.0"] ;
273 -> 279 ;
280 [label="squared_error = 0.0\nsamples = 1\nvalue = 500.0"] ;
272 -> 280 ;
281 [label="squared_error = 0.0\nsamples = 1\nvalue = 360.0"] ;
271 -> 281 ;
282 [label="squared_error = 0.0\nsamples = 1\nvalue = 880.0"] ;
270 -> 282 ;
283 [label="Q006_A <= 0.5\nsquared_error = 18719.684\nsamples = 361\nvalue = 752.521"] ;
23 -> 283 ;
284 [label="SG_UF_ESC_PB <= 0.5\nsquared_error = 18905.631\nsamples = 349\nvalue = 749.685"] ;
283 -> 284 ;
285 [label="Q006_O <= 0.5\nsquared_error = 19513.271\nsamples = 326\nvalue = 745.828"] ;
284 -> 285 ;
286 [label="Q006_G <= 0.5\nsquared_error = 19535.67\nsamples = 322\nvalue = 744.286"] ;
285 -> 286 ;
287 [label="Q006_J <= 0.5\nsquared_error = 20068.86\nsamples = 259\nvalue = 738.069"] ;
286 -> 287 ;
288 [label="TP_COR_RACA_Não declarado <= 0.5\nsquared_error = 20105.952\nsamples = 247\nvalue = 735.142"] ;
287 -> 288 ;
289 [label="Q006_L <= 0.5\nsquared_error = 20388.873\nsamples = 239\nvalue = 732.385"] ;
288 -> 289 ;
290 [label="Q006_K <= 0.5\nsquared_error = 20184.407\nsamples = 223\nvalue = 728.7"] ;
289 -> 290 ;
291 [label="SG_UF_ESC_MA <= 0.5\nsquared_error = 20086.244\nsamples = 213\nvalue = 726.291"] ;
290 -> 291 ;
292 [label="SG_UF_ESC_RS <= 0.5\nsquared_error = 19712.047\nsamples = 208\nvalue = 728.173"] ;
291 -> 292 ;
293 [label="SG_UF_ESC_ES <= 0.5\nsquared_error = 20036.943\nsamples = 203\nvalue = 729.951"] ;
292 -> 293 ;
294 [label="Q006_P <= 0.5\nsquared_error = 20236.052\nsamples = 189\nvalue = 732.804"] ;
293 -> 294 ;
295 [label="Q006_N <= 0.5\nsquared_error = 20209.562\nsamples = 186\nvalue = 731.505"] ;
294 -> 295 ;
296 [label="SG_UF_ESC_AL <= 0.5\nsquared_error = 20330.321\nsamples = 180\nvalue = 733.111"] ;
295 -> 296 ;
297 [label="SG_UF_ESC_TO <= 0.5\nsquared_error = 20262.459\nsamples = 161\nvalue = 736.025"] ;
296 -> 297 ;
298 [label="Q006_E <= 0.5\nsquared_error = 20331.109\nsamples = 160\nvalue = 736.625"] ;
297 -> 298 ;
299 [label="SG_UF_ESC_GO <= 0.5\nsquared_error = 20832.76\nsamples = 100\nvalue = 731.8"] ;
298 -> 299 ;
300 [label="SG_UF_ESC_PE <= 0.5\nsquared_error = 19895.834\nsamples = 77\nvalue = 739.481"] ;
299 -> 300 ;
301 [label="TP_COR_RACA_Amarela <= 0.5\nsquared_error = 20647.444\nsamples = 58\nvalue = 747.931"] ;
300 -> 301 ;
302 [label="Q006_F <= 0.5\nsquared_error = 20717.513\nsamples = 57\nvalue = 750.175"] ;
301 -> 302 ;
303 [label="SG_UF_ESC_RN <= 0.5\nsquared_error = 21317.906\nsamples = 33\nvalue = 738.182"] ;
302 -> 303 ;
304 [label="SG_UF_ESC_MT <= 0.5\nsquared_error = 23671.04\nsamples = 25\nvalue = 713.6"] ;
303 -> 304 ;
305 [label="Q006_H <= 0.5\nsquared_error = 24989.036\nsamples = 23\nvalue = 706.087"] ;
304 -> 305 ;
306 [label="SG_UF_ESC_BA <= 0.5\nsquared_error = 15296.0\nsamples = 5\nvalue = 732.0"] ;
305 -> 306 ;
307 [label="SG_UF_ESC_MS <= 0.5\nsquared_error = 12275.0\nsamples = 4\nvalue = 695.0"] ;
306 -> 307 ;
308 [label="squared_error = 14488.889\nsamples = 3\nvalue = 673.333"] ;
307 -> 308 ;
309 [label="squared_error = 0.0\nsamples = 1\nvalue = 760.0"] ;
307 -> 309 ;
310 [label="squared_error = 0.0\nsamples = 1\nvalue = 880.0"] ;
306 -> 310 ;
311 [label="SG_UF_ESC_PA <= 0.5\nsquared_error = 27443.21\nsamples = 18\nvalue = 698.889"] ;
305 -> 311 ;
312 [label="SG_UF_ESC_RO <= 0.5\nsquared_error = 24656.0\nsamples = 10\nvalue = 668.0"] ;
311 -> 312 ;
313 [label="SG_UF_ESC_MS <= 0.5\nsquared_error = 27061.728\nsamples = 9\nvalue = 662.222"] ;
312 -> 313 ;
314 [label="squared_error = 34742.857\nsamples = 7\nvalue = 660.0"] ;
313 -> 314 ;
315 [label="squared_error = 100.0\nsamples = 2\nvalue = 670.0"] ;
313 -> 315 ;
316 [label="squared_error = 0.0\nsamples = 1\nvalue = 720.0"] ;
312 -> 316 ;
317 [label="squared_error = 28243.75\nsamples = 8\nvalue = 737.5"] ;
311 -> 317 ;
318 [label="squared_error = 400.0\nsamples = 2\nvalue = 800.0"] ;
304 -> 318 ;
319 [label="squared_error = 6175.0\nsamples = 8\nvalue = 815.0"] ;
303 -> 319 ;
320 [label="SG_UF_ESC_RN <= 0.5\nsquared_error = 19422.222\nsamples = 24\nvalue = 766.667"] ;
302 -> 320 ;
321 [label="SG_UF_ESC_MT <= 0.5\nsquared_error = 17851.0\nsamples = 20\nvalue = 783.0"] ;
320 -> 321 ;
322 [label="SG_UF_ESC_PA <= 0.5\nsquared_error = 18688.089\nsamples = 19\nvalue = 785.263"] ;
321 -> 322 ;
323 [label="squared_error = 14367.347\nsamples = 7\nvalue = 785.714"] ;
322 -> 323 ;
324 [label="squared_error = 21208.333\nsamples = 12\nvalue = 785.0"] ;
322 -> 324 ;
325 [label="squared_error = 0.0\nsamples = 1\nvalue = 740.0"] ;
321 -> 325 ;
326 [label="squared_error = 19275.0\nsamples = 4\nvalue = 685.0"] ;
320 -> 326 ;
327 [label="squared_error = 0.0\nsamples = 1\nvalue = 620.0"] ;
301 -> 327 ;
328 [label="Q006_Q <= 0.5\nsquared_error = 16718.006\nsamples = 19\nvalue = 713.684"] ;
300 -> 328 ;
329 [label="Q006_H <= 0.5\nsquared_error = 18425.0\nsamples = 16\nvalue = 705.0"] ;
328 -> 329 ;
330 [label="squared_error = 8900.0\nsamples = 6\nvalue = 690.0"] ;
329 -> 330 ;
331 [label="squared_error = 23924.0\nsamples = 10\nvalue = 714.0"] ;
329 -> 331 ;
332 [label="squared_error = 5066.667\nsamples = 3\nvalue = 760.0"] ;
328 -> 332 ;
333 [label="TP_COR_RACA_Amarela <= 0.5\nsquared_error = 23110.775\nsamples = 23\nvalue = 706.087"] ;
299 -> 333 ;
334 [label="Q006_H <= 0.5\nsquared_error = 20056.0\nsamples = 20\nvalue = 688.0"] ;
333 -> 334 ;
335 [label="Q006_F <= 0.5\nsquared_error = 6564.0\nsamples = 10\nvalue = 646.0"] ;
334 -> 335 ;
336 [label="squared_error = 0.0\nsamples = 1\nvalue = 620.0"] ;
335 -> 336 ;
337 [label="squared_error = 7209.877\nsamples = 9\nvalue = 648.889"] ;
335 -> 337 ;
338 [label="squared_error = 30020.0\nsamples = 10\nvalue = 730.0"] ;
334 -> 338 ;
339 [label="Q006_F <= 0.5\nsquared_error = 26755.556\nsamples = 3\nvalue = 826.667"] ;
333 -> 339 ;
340 [label="squared_error = 0.0\nsamples = 1\nvalue = 900.0"] ;
339 -> 340 ;
341 [label="squared_error = 36100.0\nsamples = 2\nvalue = 790.0"] ;
339 -> 341 ;
342 [label="SG_UF_ESC_PE <= 0.5\nsquared_error = 19391.556\nsamples = 60\nvalue = 744.667"] ;
298 -> 342 ;
343 [label="SG_UF_ESC_GO <= 0.5\nsquared_error = 19938.56\nsamples = 50\nvalue = 731.2"] ;
342 -> 343 ;
344 [label="TP_COR_RACA_Parda <= 0.5\nsquared_error = 22305.325\nsamples = 39\nvalue = 718.462"] ;
343 -> 344 ;
345 [label="SG_UF_ESC_PA <= 0.5\nsquared_error = 4900.0\nsamples = 2\nvalue = 650.0"] ;
344 -> 345 ;
346 [label="squared_error = 0.0\nsamples = 1\nvalue = 580.0"] ;
345 -> 346 ;
347 [label="squared_error = 0.0\nsamples = 1\nvalue = 720.0"] ;
345 -> 347 ;
348 [label="SG_UF_ESC_BA <= 0.5\nsquared_error = 22979.109\nsamples = 37\nvalue = 722.162"] ;
344 -> 348 ;
349 [label="SG_UF_ESC_AC <= 0.5\nsquared_error = 25928.166\nsamples = 23\nvalue = 713.913"] ;
348 -> 349 ;
350 [label="SG_UF_ESC_RN <= 0.5\nsquared_error = 27005.785\nsamples = 22\nvalue = 711.818"] ;
349 -> 350 ;
351 [label="squared_error = 25093.75\nsamples = 16\nvalue = 712.5"] ;
350 -> 351 ;
352 [label="squared_error = 32100.0\nsamples = 6\nvalue = 710.0"] ;
350 -> 352 ;
353 [label="squared_error = 0.0\nsamples = 1\nvalue = 760.0"] ;
349 -> 353 ;
354 [label="squared_error = 17838.776\nsamples = 14\nvalue = 735.714"] ;
348 -> 354 ;
355 [label="TP_COR_RACA_Amarela <= 0.5\nsquared_error = 8932.231\nsamples = 11\nvalue = 776.364"] ;
343 -> 355 ;
356 [label="squared_error = 9056.0\nsamples = 10\nvalue = 768.0"] ;
355 -> 356 ;
357 [label="squared_error = 0.0\nsamples = 1\nvalue = 860.0"] ;
355 -> 357 ;
358 [label="squared_error = 11216.0\nsamples = 10\nvalue = 812.0"] ;
342 -> 358 ;
359 [label="squared_error = 0.0\nsamples = 1\nvalue = 640.0"] ;
297 -> 359 ;
360 [label="Q006_F <= 0.5\nsquared_error = 20223.823\nsamples = 19\nvalue = 708.421"] ;
296 -> 360 ;
361 [label="Q006_E <= 0.5\nsquared_error = 18314.793\nsamples = 13\nvalue = 730.769"] ;
360 -> 361 ;
362 [label="squared_error = 13469.388\nsamples = 7\nvalue = 731.429"] ;
361 -> 362 ;
363 [label="squared_error = 23966.667\nsamples = 6\nvalue = 730.0"] ;
361 -> 363 ;
364 [label="squared_error = 20933.333\nsamples = 6\nvalue = 660.0"] ;
360 -> 364 ;
365 [label="SG_UF_ESC_PA <= 0.5\nsquared_error = 14188.889\nsamples = 6\nvalue = 683.333"] ;
295 -> 365 ;
366 [label="SG_UF_ESC_AL <= 0.5\nsquared_error = 1866.667\nsamples = 3\nvalue = 620.0"] ;
365 -> 366 ;
367 [label="SG_UF_ESC_GO <= 0.5\nsquared_error = 100.0\nsamples = 2\nvalue = 590.0"] ;
366 -> 367 ;
368 [label="squared_error = 0.0\nsamples = 1\nvalue = 600.0"] ;
367 -> 368 ;
369 [label="squared_error = 0.0\nsamples = 1\nvalue = 580.0"] ;
367 -> 369 ;
370 [label="squared_error = 0.0\nsamples = 1\nvalue = 680.0"] ;
366 -> 370 ;
371 [label="squared_error = 18488.889\nsamples = 3\nvalue = 746.667"] ;
365 -> 371 ;
372 [label="SG_UF_ESC_PA <= 0.5\nsquared_error = 15288.889\nsamples = 3\nvalue = 813.333"] ;
294 -> 372 ;
373 [label="SG_UF_ESC_AL <= 0.5\nsquared_error = 400.0\nsamples = 2\nvalue = 900.0"] ;
372 -> 373 ;
374 [label="squared_error = 0.0\nsamples = 1\nvalue = 880.0"] ;
373 -> 374 ;
375 [label="squared_error = 0.0\nsamples = 1\nvalue = 920.0"] ;
373 -> 375 ;
376 [label="squared_error = 0.0\nsamples = 1\nvalue = 640.0"] ;
372 -> 376 ;
377 [label="Q006_F <= 0.5\nsquared_error = 15755.102\nsamples = 14\nvalue = 691.429"] ;
293 -> 377 ;
378 [label="Q006_N <= 0.5\nsquared_error = 14566.667\nsamples = 12\nvalue = 670.0"] ;
377 -> 378 ;
379 [label="Q006_H <= 0.5\nsquared_error = 13659.504\nsamples = 11\nvalue = 656.364"] ;
378 -> 379 ;
380 [label="Q006_Q <= 0.5\nsquared_error = 3281.633\nsamples = 7\nvalue = 665.714"] ;
379 -> 380 ;
381 [label="squared_error = 4416.0\nsamples = 5\nvalue = 668.0"] ;
380 -> 381 ;
382 [label="squared_error = 400.0\nsamples = 2\nvalue = 660.0"] ;
380 -> 382 ;
383 [label="squared_error = 31400.0\nsamples = 4\nvalue = 640.0"] ;
379 -> 383 ;
384 [label="squared_error = 0.0\nsamples = 1\nvalue = 820.0"] ;
378 -> 384 ;
385 [label="squared_error = 3600.0\nsamples = 2\nvalue = 820.0"] ;
377 -> 385 ;
386 [label="Q006_P <= 0.5\nsquared_error = 1184.0\nsamples = 5\nvalue = 656.0"] ;
292 -> 386 ;
387 [label="Q006_E <= 0.5\nsquared_error = 500.0\nsamples = 4\nvalue = 670.0"] ;
386 -> 387 ;
388 [label="TP_COR_RACA_Parda <= 0.5\nsquared_error = 100.0\nsamples = 2\nvalue = 690.0"] ;
387 -> 388 ;
389 [label="squared_error = 0.0\nsamples = 1\nvalue = 680.0"] ;
388 -> 389 ;
390 [label="squared_error = 0.0\nsamples = 1\nvalue = 700.0"] ;
388 -> 390 ;
391 [label="squared_error = 100.0\nsamples = 2\nvalue = 650.0"] ;
387 -> 391 ;
392 [label="squared_error = 0.0\nsamples = 1\nvalue = 600.0"] ;
386 -> 392 ;
393 [label="Q006_H <= 0.5\nsquared_error = 29376.0\nsamples = 5\nvalue = 648.0"] ;
291 -> 393 ;
394 [label="Q006_E <= 0.5\nsquared_error = 14275.0\nsamples = 4\nvalue = 715.0"] ;
393 -> 394 ;
395 [label="squared_error = 4900.0\nsamples = 2\nvalue = 670.0"] ;
394 -> 395 ;
396 [label="squared_error = 19600.0\nsamples = 2\nvalue = 760.0"] ;
394 -> 396 ;
397 [label="squared_error = 0.0\nsamples = 1\nvalue = 380.0"] ;
393 -> 397 ;
398 [label="SG_UF_ESC_PA <= 0.5\nsquared_error = 19520.0\nsamples = 10\nvalue = 780.0"] ;
290 -> 398 ;
399 [label="SG_UF_ESC_BA <= 0.5\nsquared_error = 17688.889\nsamples = 9\nvalue = 760.0"] ;
398 -> 399 ;
400 [label="SG_UF_ESC_MA <= 0.5\nsquared_error = 19000.0\nsamples = 8\nvalue = 750.0"] ;
399 -> 400 ;
401 [label="SG_UF_ESC_AL <= 0.5\nsquared_error = 21306.122\nsamples = 7\nvalue = 742.857"] ;
400 -> 401 ;
402 [label="SG_UF_ESC_GO <= 0.5\nsquared_error = 24588.889\nsamples = 6\nvalue = 736.667"] ;
401 -> 402 ;
403 [label="squared_error = 0.0\nsamples = 2\nvalue = 740.0"] ;
402 -> 403 ;
404 [label="squared_error = 36875.0\nsamples = 4\nvalue = 735.0"] ;
402 -> 404 ;
405 [label="squared_error = 0.0\nsamples = 1\nvalue = 780.0"] ;
401 -> 405 ;
406 [label="squared_error = 0.0\nsamples = 1\nvalue = 800.0"] ;
400 -> 406 ;
407 [label="squared_error = 0.0\nsamples = 1\nvalue = 840.0"] ;
399 -> 407 ;
408 [label="squared_error = 0.0\nsamples = 1\nvalue = 960.0"] ;
398 -> 408 ;
409 [label="SG_UF_ESC_BA <= 0.5\nsquared_error = 20410.938\nsamples = 16\nvalue = 783.75"] ;
289 -> 409 ;
410 [label="SG_UF_ESC_GO <= 0.5\nsquared_error = 11495.918\nsamples = 14\nvalue = 815.714"] ;
409 -> 410 ;
411 [label="SG_UF_ESC_RN <= 0.5\nsquared_error = 10655.621\nsamples = 13\nvalue = 804.615"] ;
410 -> 411 ;
412 [label="SG_UF_ESC_PE <= 0.5\nsquared_error = 9888.889\nsamples = 12\nvalue = 793.333"] ;
411 -> 412 ;
413 [label="SG_UF_ESC_PA <= 0.5\nsquared_error = 9355.102\nsamples = 7\nvalue = 751.429"] ;
412 -> 413 ;
414 [label="SG_UF_ESC_ES <= 0.5\nsquared_error = 2600.0\nsamples = 4\nvalue = 720.0"] ;
413 -> 414 ;
415 [label="TP_COR_RACA_Amarela <= 0.5\nsquared_error = 3288.889\nsamples = 3\nvalue = 726.667"] ;
414 -> 415 ;
416 [label="squared_error = 4900.0\nsamples = 2\nvalue = 730.0"] ;
415 -> 416 ;
417 [label="squared_error = 0.0\nsamples = 1\nvalue = 720.0"] ;
415 -> 417 ;
418 [label="squared_error = 0.0\nsamples = 1\nvalue = 700.0"] ;
414 -> 418 ;
419 [label="squared_error = 15288.889\nsamples = 3\nvalue = 793.333"] ;
413 -> 419 ;
420 [label="squared_error = 4736.0\nsamples = 5\nvalue = 852.0"] ;
412 -> 420 ;
421 [label="squared_error = 0.0\nsamples = 1\nvalue = 940.0"] ;
411 -> 421 ;
422 [label="squared_error = 0.0\nsamples = 1\nvalue = 960.0"] ;
410 -> 422 ;
423 [label="squared_error = 25600.0\nsamples = 2\nvalue = 560.0"] ;
409 -> 423 ;
424 [label="Q006_H <= 0.5\nsquared_error = 4643.75\nsamples = 8\nvalue = 817.5"] ;
288 -> 424 ;
425 [label="SG_UF_ESC_RS <= 0.5\nsquared_error = 2240.0\nsamples = 5\nvalue = 780.0"] ;
424 -> 425 ;
426 [label="Q006_K <= 0.5\nsquared_error = 1066.667\nsamples = 3\nvalue = 760.0"] ;
425 -> 426 ;
427 [label="Q006_L <= 0.5\nsquared_error = 400.0\nsamples = 2\nvalue = 740.0"] ;
426 -> 427 ;
428 [label="squared_error = 0.0\nsamples = 1\nvalue = 720.0"] ;
427 -> 428 ;
429 [label="squared_error = 0.0\nsamples = 1\nvalue = 760.0"] ;
427 -> 429 ;
430 [label="squared_error = 0.0\nsamples = 1\nvalue = 800.0"] ;
426 -> 430 ;
431 [label="Q006_E <= 0.5\nsquared_error = 2500.0\nsamples = 2\nvalue = 810.0"] ;
425 -> 431 ;
432 [label="squared_error = 0.0\nsamples = 1\nvalue = 760.0"] ;
431 -> 432 ;
433 [label="squared_error = 0.0\nsamples = 1\nvalue = 860.0"] ;
431 -> 433 ;
434 [label="SG_UF_ESC_GO <= 0.5\nsquared_error = 2400.0\nsamples = 3\nvalue = 880.0"] ;
424 -> 434 ;
435 [label="SG_UF_ESC_RN <= 0.5\nsquared_error = 900.0\nsamples = 2\nvalue = 910.0"] ;
434 -> 435 ;
436 [label="squared_error = 0.0\nsamples = 1\nvalue = 940.0"] ;
435 -> 436 ;
437 [label="squared_error = 0.0\nsamples = 1\nvalue = 880.0"] ;
435 -> 437 ;
438 [label="squared_error = 0.0\nsamples = 1\nvalue = 820.0"] ;
434 -> 438 ;
439 [label="TP_COR_RACA_Não declarado <= 0.5\nsquared_error = 15497.222\nsamples = 12\nvalue = 798.333"] ;
287 -> 439 ;
440 [label="SG_UF_ESC_PA <= 0.5\nsquared_error = 9223.14\nsamples = 11\nvalue = 823.636"] ;
439 -> 440 ;
441 [label="SG_UF_ESC_RN <= 0.5\nsquared_error = 8572.84\nsamples = 9\nvalue = 842.222"] ;
440 -> 441 ;
442 [label="SG_UF_ESC_AL <= 0.5\nsquared_error = 2938.776\nsamples = 7\nvalue = 865.714"] ;
441 -> 442 ;
443 [label="SG_UF_ESC_BA <= 0.5\nsquared_error = 2355.556\nsamples = 6\nvalue = 853.333"] ;
442 -> 443 ;
444 [label="SG_UF_ESC_GO <= 0.5\nsquared_error = 2560.0\nsamples = 5\nvalue = 860.0"] ;
443 -> 444 ;
445 [label="squared_error = 2500.0\nsamples = 2\nvalue = 850.0"] ;
444 -> 445 ;
446 [label="squared_error = 2488.889\nsamples = 3\nvalue = 866.667"] ;
444 -> 446 ;
447 [label="squared_error = 0.0\nsamples = 1\nvalue = 820.0"] ;
443 -> 447 ;
448 [label="squared_error = 0.0\nsamples = 1\nvalue = 940.0"] ;
442 -> 448 ;
449 [label="squared_error = 19600.0\nsamples = 2\nvalue = 760.0"] ;
441 -> 449 ;
450 [label="squared_error = 3600.0\nsamples = 2\nvalue = 740.0"] ;
440 -> 450 ;
451 [label="squared_error = 0.0\nsamples = 1\nvalue = 520.0"] ;
439 -> 451 ;
452 [label="TP_COR_RACA_Amarela <= 0.5\nsquared_error = 16531.721\nsamples = 63\nvalue = 769.841"] ;
286 -> 452 ;
453 [label="SG_UF_ESC_MS <= 0.5\nsquared_error = 16323.829\nsamples = 62\nvalue = 767.097"] ;
452 -> 453 ;
454 [label="SG_UF_ESC_PA <= 0.5\nsquared_error = 16126.203\nsamples = 61\nvalue = 769.836"] ;
453 -> 454 ;
455 [label="SG_UF_ESC_ES <= 0.5\nsquared_error = 17061.982\nsamples = 52\nvalue = 762.692"] ;
454 -> 455 ;
456 [label="TP_COR_RACA_Não declarado <= 0.5\nsquared_error = 16015.972\nsamples = 48\nvalue = 759.167"] ;
455 -> 456 ;
457 [label="SG_UF_ESC_GO <= 0.5\nsquared_error = 14955.009\nsamples = 46\nvalue = 764.348"] ;
456 -> 457 ;
458 [label="SG_UF_ESC_AL <= 0.5\nsquared_error = 12075.0\nsamples = 32\nvalue = 750.0"] ;
457 -> 458 ;
459 [label="SG_UF_ESC_RO <= 0.5\nsquared_error = 11053.061\nsamples = 28\nvalue = 745.714"] ;
458 -> 459 ;
460 [label="SG_UF_ESC_BA <= 0.5\nsquared_error = 12162.56\nsamples = 25\nvalue = 748.8"] ;
459 -> 460 ;
461 [label="SG_UF_ESC_RN <= 0.5\nsquared_error = 11563.636\nsamples = 11\nvalue = 760.0"] ;
460 -> 461 ;
462 [label="squared_error = 9344.0\nsamples = 5\nvalue = 764.0"] ;
461 -> 462 ;
463 [label="squared_error = 13388.889\nsamples = 6\nvalue = 756.667"] ;
461 -> 463 ;
464 [label="squared_error = 12457.143\nsamples = 14\nvalue = 740.0"] ;
460 -> 464 ;
465 [label="squared_error = 1066.667\nsamples = 3\nvalue = 720.0"] ;
459 -> 465 ;
466 [label="squared_error = 18200.0\nsamples = 4\nvalue = 780.0"] ;
458 -> 466 ;
467 [label="squared_error = 19991.837\nsamples = 14\nvalue = 797.143"] ;
457 -> 467 ;
468 [label="SG_UF_ESC_GO <= 0.5\nsquared_error = 25600.0\nsamples = 2\nvalue = 640.0"] ;
456 -> 468 ;
469 [label="squared_error = 0.0\nsamples = 1\nvalue = 800.0"] ;
468 -> 469 ;
470 [label="squared_error = 0.0\nsamples = 1\nvalue = 480.0"] ;
468 -> 470 ;
471 [label="TP_COR_RACA_Não declarado <= 0.5\nsquared_error = 27675.0\nsamples = 4\nvalue = 805.0"] ;
455 -> 471 ;
472 [label="squared_error = 28800.0\nsamples = 3\nvalue = 760.0"] ;
471 -> 472 ;
473 [label="squared_error = 0.0\nsamples = 1\nvalue = 940.0"] ;
471 -> 473 ;
474 [label="squared_error = 8720.988\nsamples = 9\nvalue = 811.111"] ;
454 -> 474 ;
475 [label="squared_error = 0.0\nsamples = 1\nvalue = 600.0"] ;
453 -> 475 ;
476 [label="squared_error = 0.0\nsamples = 1\nvalue = 940.0"] ;
452 -> 476 ;
477 [label="SG_UF_ESC_PA <= 0.5\nsquared_error = 2100.0\nsamples = 4\nvalue = 870.0"] ;
285 -> 477 ;
478 [label="squared_error = 0.0\nsamples = 1\nvalue = 820.0"] ;
477 -> 478 ;
479 [label="squared_error = 1688.889\nsamples = 3\nvalue = 886.667"] ;
477 -> 479 ;
480 [label="Q006_Q <= 0.5\nsquared_error = 7094.14\nsamples = 23\nvalue = 804.348"] ;
284 -> 480 ;
481 [label="Q006_P <= 0.5\nsquared_error = 6133.058\nsamples = 22\nvalue = 811.818"] ;
480 -> 481 ;
482 [label="Q006_L <= 0.5\nsquared_error = 5596.0\nsamples = 20\nvalue = 822.0"] ;
481 -> 482 ;
483 [label="Q006_F <= 0.5\nsquared_error = 3209.877\nsamples = 18\nvalue = 831.111"] ;
482 -> 483 ;
484 [label="Q006_N <= 0.5\nsquared_error = 3105.325\nsamples = 13\nvalue = 818.462"] ;
483 -> 484 ;
485 [label="Q006_J <= 0.5\nsquared_error = 3022.222\nsamples = 12\nvalue = 813.333"] ;
484 -> 485 ;
486 [label="Q006_H <= 0.5\nsquared_error = 1684.0\nsamples = 10\nvalue = 806.0"] ;
485 -> 486 ;
487 [label="Q006_G <= 0.5\nsquared_error = 1609.877\nsamples = 9\nvalue = 811.111"] ;
486 -> 487 ;
488 [label="squared_error = 1355.102\nsamples = 7\nvalue = 811.429"] ;
487 -> 488 ;
489 [label="squared_error = 2500.0\nsamples = 2\nvalue = 810.0"] ;
487 -> 489 ;
490 [label="squared_error = 0.0\nsamples = 1\nvalue = 760.0"] ;
486 -> 490 ;
491 [label="squared_error = 8100.0\nsamples = 2\nvalue = 850.0"] ;
485 -> 491 ;
492 [label="squared_error = 0.0\nsamples = 1\nvalue = 880.0"] ;
484 -> 492 ;
493 [label="squared_error = 1984.0\nsamples = 5\nvalue = 864.0"] ;
483 -> 493 ;
494 [label="squared_error = 19600.0\nsamples = 2\nvalue = 740.0"] ;
482 -> 494 ;
495 [label="squared_error = 100.0\nsamples = 2\nvalue = 710.0"] ;
481 -> 495 ;
496 [label="squared_error = 0.0\nsamples = 1\nvalue = 640.0"] ;
480 -> 496 ;
497 [label="SG_UF_ESC_MA <= 0.5\nsquared_error = 6275.0\nsamples = 12\nvalue = 835.0"] ;
283 -> 497 ;
498 [label="SG_UF_ESC_BA <= 0.5\nsquared_error = 4888.889\nsamples = 9\nvalue = 806.667"] ;
497 -> 498 ;
499 [label="SG_UF_ESC_AL <= 0.5\nsquared_error = 5400.0\nsamples = 8\nvalue = 810.0"] ;
498 -> 499 ;
500 [label="SG_UF_ESC_RN <= 0.5\nsquared_error = 7022.222\nsamples = 6\nvalue = 806.667"] ;
499 -> 500 ;
501 [label="SG_UF_ESC_PB <= 0.5\nsquared_error = 8384.0\nsamples = 5\nvalue = 804.0"] ;
500 -> 501 ;
502 [label="squared_error = 0.0\nsamples = 1\nvalue = 800.0"] ;
501 -> 502 ;
503 [label="squared_error = 10475.0\nsamples = 4\nvalue = 805.0"] ;
501 -> 503 ;
504 [label="squared_error = 0.0\nsamples = 1\nvalue = 820.0"] ;
500 -> 504 ;
505 [label="squared_error = 400.0\nsamples = 2\nvalue = 820.0"] ;
499 -> 505 ;
506 [label="squared_error = 0.0\nsamples = 1\nvalue = 780.0"] ;
498 -> 506 ;
507 [label="squared_error = 800.0\nsamples = 3\nvalue = 920.0"] ;
497 -> 507 ;
508 [label="SG_UF_ESC_MA <= 0.5\nsquared_error = 23118.545\nsamples = 55\nvalue = 696.0"] ;
22 -> 508 ;
509 [label="SG_UF_ESC_PE <= 0.5\nsquared_error = 22666.667\nsamples = 54\nvalue = 700.0"] ;
508 -> 509 ;
510 [label="Q002_C <= 0.5\nsquared_error = 22563.265\nsamples = 49\nvalue = 708.571"] ;
509 -> 510 ;
511 [label="SG_UF_ESC_RN <= 0.5\nsquared_error = 22181.717\nsamples = 38\nvalue = 688.421"] ;
510 -> 511 ;
512 [label="Q002_D <= 0.5\nsquared_error = 22376.543\nsamples = 36\nvalue = 681.111"] ;
511 -> 512 ;
513 [label="SG_UF_ESC_AL <= 0.5\nsquared_error = 35466.667\nsamples = 3\nvalue = 600.0"] ;
512 -> 513 ;
514 [label="Q002_B <= 0.5\nsquared_error = 10000.0\nsamples = 2\nvalue = 480.0"] ;
513 -> 514 ;
515 [label="squared_error = 0.0\nsamples = 1\nvalue = 580.0"] ;
514 -> 515 ;
516 [label="squared_error = 0.0\nsamples = 1\nvalue = 380.0"] ;
514 -> 516 ;
517 [label="squared_error = 0.0\nsamples = 1\nvalue = 840.0"] ;
513 -> 517 ;
518 [label="SG_UF_ESC_MS <= 0.5\nsquared_error = 20534.068\nsamples = 33\nvalue = 688.485"] ;
512 -> 518 ;
519 [label="SG_UF_ESC_AL <= 0.5\nsquared_error = 20465.234\nsamples = 32\nvalue = 693.125"] ;
518 -> 519 ;
520 [label="SG_UF_ESC_PB <= 0.5\nsquared_error = 18482.84\nsamples = 26\nvalue = 703.077"] ;
519 -> 520 ;
521 [label="SG_UF_ESC_BA <= 0.5\nsquared_error = 19409.091\nsamples = 22\nvalue = 710.0"] ;
520 -> 521 ;
522 [label="SG_UF_ESC_ES <= 0.5\nsquared_error = 12026.531\nsamples = 14\nvalue = 721.429"] ;
521 -> 522 ;
523 [label="TP_COR_RACA_Parda <= 0.5\nsquared_error = 15136.0\nsamples = 10\nvalue = 728.0"] ;
522 -> 523 ;
524 [label="squared_error = 0.0\nsamples = 1\nvalue = 860.0"] ;
523 -> 524 ;
525 [label="SG_UF_ESC_PA <= 0.5\nsquared_error = 14666.667\nsamples = 9\nvalue = 713.333"] ;
523 -> 525 ;
526 [label="squared_error = 12160.0\nsamples = 5\nvalue = 700.0"] ;
525 -> 526 ;
527 [label="squared_error = 17300.0\nsamples = 4\nvalue = 730.0"] ;
525 -> 527 ;
528 [label="TP_COR_RACA_Não declarado <= 0.5\nsquared_error = 3875.0\nsamples = 4\nvalue = 705.0"] ;
522 -> 528 ;
529 [label="squared_error = 266.667\nsamples = 3\nvalue = 740.0"] ;
528 -> 529 ;
530 [label="squared_error = 0.0\nsamples = 1\nvalue = 600.0"] ;
528 -> 530 ;
531 [label="TP_COR_RACA_Não declarado <= 0.5\nsquared_error = 31700.0\nsamples = 8\nvalue = 690.0"] ;
521 -> 531 ;
532 [label="squared_error = 40633.333\nsamples = 6\nvalue = 690.0"] ;
531 -> 532 ;
533 [label="squared_error = 4900.0\nsamples = 2\nvalue = 690.0"] ;
531 -> 533 ;
534 [label="squared_error = 11675.0\nsamples = 4\nvalue = 665.0"] ;
520 -> 534 ;
535 [label="squared_error = 26766.667\nsamples = 6\nvalue = 650.0"] ;
519 -> 535 ;
536 [label="squared_error = 0.0\nsamples = 1\nvalue = 540.0"] ;
518 -> 536 ;
537 [label="Q002_D <= 0.5\nsquared_error = 400.0\nsamples = 2\nvalue = 820.0"] ;
511 -> 537 ;
538 [label="squared_error = 0.0\nsamples = 1\nvalue = 800.0"] ;
537 -> 538 ;
539 [label="squared_error = 0.0\nsamples = 1\nvalue = 840.0"] ;
537 -> 539 ;
540 [label="SG_UF_ESC_PB <= 0.5\nsquared_error = 17633.058\nsamples = 11\nvalue = 778.182"] ;
510 -> 540 ;
541 [label="TP_COR_RACA_Não declarado <= 0.5\nsquared_error = 16516.0\nsamples = 10\nvalue = 762.0"] ;
540 -> 541 ;
542 [label="SG_UF_ESC_RN <= 0.5\nsquared_error = 15861.728\nsamples = 9\nvalue = 777.778"] ;
541 -> 542 ;
543 [label="SG_UF_ESC_GO <= 0.5\nsquared_error = 2448.98\nsamples = 7\nvalue = 802.857"] ;
542 -> 543 ;
544 [label="SG_UF_ESC_AL <= 0.5\nsquared_error = 1504.0\nsamples = 5\nvalue = 824.0"] ;
543 -> 544 ;
545 [label="SG_UF_ESC_BA <= 0.5\nsquared_error = 600.0\nsamples = 4\nvalue = 840.0"] ;
544 -> 545 ;
546 [label="squared_error = 0.0\nsamples = 1\nvalue = 880.0"] ;
545 -> 546 ;
547 [label="TP_COR_RACA_Parda <= 0.5\nsquared_error = 88.889\nsamples = 3\nvalue = 826.667"] ;
545 -> 547 ;
548 [label="squared_error = 0.0\nsamples = 1\nvalue = 820.0"] ;
547 -> 548 ;
549 [label="squared_error = 100.0\nsamples = 2\nvalue = 830.0"] ;
547 -> 549 ;
550 [label="squared_error = 0.0\nsamples = 1\nvalue = 760.0"] ;
544 -> 550 ;
551 [label="squared_error = 900.0\nsamples = 2\nvalue = 750.0"] ;
543 -> 551 ;
552 [label="squared_error = 52900.0\nsamples = 2\nvalue = 690.0"] ;
542 -> 552 ;
553 [label="squared_error = 0.0\nsamples = 1\nvalue = 620.0"] ;
541 -> 553 ;
554 [label="squared_error = 0.0\nsamples = 1\nvalue = 940.0"] ;
540 -> 554 ;
555 [label="Q002_C <= 0.5\nsquared_error = 15904.0\nsamples = 5\nvalue = 616.0"] ;
509 -> 555 ;
556 [label="squared_error = 10000.0\nsamples = 2\nvalue = 660.0"] ;
555 -> 556 ;
557 [label="squared_error = 17688.889\nsamples = 3\nvalue = 586.667"] ;
555 -> 557 ;
558 [label="squared_error = 0.0\nsamples = 1\nvalue = 480.0"] ;
508 -> 558 ;
559 [label="Q006_I <= 0.5\nsquared_error = 42240.0\nsamples = 5\nvalue = 600.0"] ;
21 -> 559 ;
560 [label="Q002_C <= 0.5\nsquared_error = 20800.0\nsamples = 4\nvalue = 520.0"] ;
559 -> 560 ;
561 [label="Q006_E <= 0.5\nsquared_error = 9955.556\nsamples = 3\nvalue = 586.667"] ;
560 -> 561 ;
562 [label="TP_COR_RACA_Não declarado <= 0.5\nsquared_error = 1600.0\nsamples = 2\nvalue = 520.0"] ;
561 -> 562 ;
563 [label="squared_error = 0.0\nsamples = 1\nvalue = 560.0"] ;
562 -> 563 ;
564 [label="squared_error = 0.0\nsamples = 1\nvalue = 480.0"] ;
562 -> 564 ;
565 [label="squared_error = 0.0\nsamples = 1\nvalue = 720.0"] ;
561 -> 565 ;
566 [label="squared_error = 0.0\nsamples = 1\nvalue = 320.0"] ;
560 -> 566 ;
567 [label="squared_error = 0.0\nsamples = 1\nvalue = 920.0"] ;
559 -> 567 ;
568 [label="Q006_J <= 0.5\nsquared_error = 18946.977\nsamples = 2889\nvalue = 759.308"] ;
20 -> 568 ;
569 [label="SG_UF_ESC_PE <= 0.5\nsquared_error = 19022.34\nsamples = 2756\nvalue = 757.358"] ;
568 -> 569 ;
570 [label="Q006_E <= 0.5\nsquared_error = 18811.832\nsamples = 2374\nvalue = 760.362"] ;
569 -> 570 ;
571 [label="Q006_A <= 0.5\nsquared_error = 18868.976\nsamples = 1856\nvalue = 764.547"] ;
570 -> 571 ;
572 [label="Q006_G <= 0.5\nsquared_error = 18826.844\nsamples = 1814\nvalue = 765.601"] ;
571 -> 572 ;
573 [label="SG_UF_ESC_MS <= 0.5\nsquared_error = 18783.343\nsamples = 1411\nvalue = 769.157"] ;
572 -> 573 ;
574 [label="Q006_F <= 0.5\nsquared_error = 18707.866\nsamples = 1376\nvalue = 770.523"] ;
573 -> 574 ;
575 [label="SG_UF_ESC_MT <= 0.5\nsquared_error = 18245.612\nsamples = 1075\nvalue = 773.842"] ;
574 -> 575 ;
576 [label="SG_UF_ESC_AL <= 0.5\nsquared_error = 17927.789\nsamples = 1029\nvalue = 775.646"] ;
575 -> 576 ;
577 [label="SG_UF_ESC_RR <= 0.5\nsquared_error = 17770.426\nsamples = 962\nvalue = 777.755"] ;
576 -> 577 ;
578 [label="SG_UF_ESC_ES <= 0.5\nsquared_error = 17756.663\nsamples = 960\nvalue = 778.062"] ;
577 -> 578 ;
579 [label="Q006_O <= 0.5\nsquared_error = 17712.209\nsamples = 890\nvalue = 776.247"] ;
578 -> 579 ;
580 [label="SG_UF_ESC_GO <= 0.5\nsquared_error = 17813.621\nsamples = 845\nvalue = 774.864"] ;
579 -> 580 ;
581 [label="SG_UF_ESC_RS <= 0.5\nsquared_error = 17358.775\nsamples = 708\nvalue = 778.164"] ;
580 -> 581 ;
582 [label="Q006_H <= 0.5\nsquared_error = 17476.952\nsamples = 674\nvalue = 779.11"] ;
581 -> 582 ;
583 [label="SG_UF_ESC_PA <= 0.5\nsquared_error = 17076.544\nsamples = 347\nvalue = 782.651"] ;
582 -> 583 ;
584 [label="Q006_N <= 0.5\nsquared_error = 16200.691\nsamples = 270\nvalue = 785.778"] ;
583 -> 584 ;
585 [label="SG_UF_ESC_RN <= 0.5\nsquared_error = 16298.756\nsamples = 237\nvalue = 789.367"] ;
584 -> 585 ;
586 [label="Q006_I <= 0.5\nsquared_error = 15662.755\nsamples = 196\nvalue = 793.571"] ;
585 -> 586 ;
587 [label="SG_UF_ESC_PB <= 0.5\nsquared_error = 14656.482\nsamples = 127\nvalue = 804.882"] ;
586 -> 587 ;
588 [label="Q006_P <= 0.5\nsquared_error = 15734.195\nsamples = 107\nvalue = 797.196"] ;
587 -> 588 ;
589 [label="SG_UF_ESC_TO <= 0.5\nsquared_error = 16927.042\nsamples = 86\nvalue = 790.93"] ;
588 -> 589 ;
590 [label="SG_UF_ESC_AP <= 0.5\nsquared_error = 15598.526\nsamples = 79\nvalue = 793.924"] ;
589 -> 590 ;
591 [label="SG_UF_ESC_BA <= 0.5\nsquared_error = 15434.903\nsamples = 76\nvalue = 795.789"] ;
590 -> 591 ;
592 [label="Q006_K <= 0.5\nsquared_error = 17417.301\nsamples = 17\nvalue = 810.588"] ;
591 -> 592 ;
593 [label="SG_UF_ESC_AC <= 0.5\nsquared_error = 3228.402\nsamples = 13\nvalue = 838.462"] ;
592 -> 593 ;
594 [label="SG_UF_ESC_RO <= 0.5\nsquared_error = 1766.667\nsamples = 12\nvalue = 850.0"] ;
593 -> 594 ;
595 [label="Q006_L <= 0.5\nsquared_error = 1575.0\nsamples = 8\nvalue = 865.0"] ;
594 -> 595 ;
596 [label="squared_error = 1475.0\nsamples = 4\nvalue = 875.0"] ;
595 -> 596 ;
597 [label="squared_error = 1475.0\nsamples = 4\nvalue = 855.0"] ;
595 -> 597 ;
598 [label="Q006_L <= 0.5\nsquared_error = 800.0\nsamples = 4\nvalue = 820.0"] ;
594 -> 598 ;
599 [label="squared_error = 400.0\nsamples = 2\nvalue = 840.0"] ;
598 -> 599 ;
600 [label="squared_error = 400.0\nsamples = 2\nvalue = 800.0"] ;
598 -> 600 ;
601 [label="squared_error = 0.0\nsamples = 1\nvalue = 700.0"] ;
593 -> 601 ;
602 [label="SG_UF_ESC_MA <= 0.5\nsquared_error = 52800.0\nsamples = 4\nvalue = 720.0"] ;
592 -> 602 ;
603 [label="squared_error = 0.0\nsamples = 1\nvalue = 920.0"] ;
602 -> 603 ;
604 [label="squared_error = 52622.222\nsamples = 3\nvalue = 653.333"] ;
602 -> 604 ;
605 [label="Q006_K <= 0.5\nsquared_error = 14782.419\nsamples = 59\nvalue = 791.525"] ;
591 -> 605 ;
606 [label="Q006_Q <= 0.5\nsquared_error = 15829.949\nsamples = 37\nvalue = 784.324"] ;
605 -> 606 ;
607 [label="TP_COR_RACA_Não declarado <= 0.5\nsquared_error = 16290.56\nsamples = 25\nvalue = 788.8"] ;
606 -> 607 ;
608 [label="squared_error = 16706.238\nsamples = 23\nvalue = 797.391"] ;
607 -> 608 ;
609 [label="squared_error = 900.0\nsamples = 2\nvalue = 690.0"] ;
607 -> 609 ;
610 [label="TP_COR_RACA_Parda <= 0.5\nsquared_error = 14741.667\nsamples = 12\nvalue = 775.0"] ;
606 -> 610 ;
611 [label="squared_error = 2500.0\nsamples = 2\nvalue = 870.0"] ;
610 -> 611 ;
612 [label="squared_error = 15024.0\nsamples = 10\nvalue = 756.0"] ;
610 -> 612 ;
613 [label="TP_COR_RACA_Parda <= 0.5\nsquared_error = 12786.777\nsamples = 22\nvalue = 803.636"] ;
605 -> 613 ;
614 [label="TP_COR_RACA_Não declarado <= 0.5\nsquared_error = 100.0\nsamples = 2\nvalue = 830.0"] ;
613 -> 614 ;
615 [label="squared_error = 0.0\nsamples = 1\nvalue = 840.0"] ;
614 -> 615 ;
616 [label="squared_error = 0.0\nsamples = 1\nvalue = 820.0"] ;
614 -> 616 ;
617 [label="squared_error = 13979.0\nsamples = 20\nvalue = 801.0"] ;
613 -> 617 ;
618 [label="Q006_L <= 0.5\nsquared_error = 17422.222\nsamples = 3\nvalue = 746.667"] ;
590 -> 618 ;
619 [label="squared_error = 25600.0\nsamples = 2\nvalue = 760.0"] ;
618 -> 619 ;
620 [label="squared_error = 0.0\nsamples = 1\nvalue = 720.0"] ;
618 -> 620 ;
621 [label="Q006_Q <= 0.5\nsquared_error = 30677.551\nsamples = 7\nvalue = 757.143"] ;
589 -> 621 ;
622 [label="Q006_L <= 0.5\nsquared_error = 7475.0\nsamples = 4\nvalue = 825.0"] ;
621 -> 622 ;
623 [label="squared_error = 400.0\nsamples = 2\nvalue = 860.0"] ;
622 -> 623 ;
624 [label="squared_error = 12100.0\nsamples = 2\nvalue = 790.0"] ;
622 -> 624 ;
625 [label="squared_error = 47288.889\nsamples = 3\nvalue = 666.667"] ;
621 -> 625 ;
626 [label="TP_COR_RACA_Parda <= 0.5\nsquared_error = 10029.932\nsamples = 21\nvalue = 822.857"] ;
588 -> 626 ;
627 [label="squared_error = 0.0\nsamples = 1\nvalue = 920.0"] ;
626 -> 627 ;
628 [label="SG_UF_ESC_RO <= 0.5\nsquared_error = 10036.0\nsamples = 20\nvalue = 818.0"] ;
626 -> 628 ;
629 [label="SG_UF_ESC_TO <= 0.5\nsquared_error = 10191.69\nsamples = 19\nvalue = 813.684"] ;
628 -> 629 ;
630 [label="SG_UF_ESC_MA <= 0.5\nsquared_error = 10500.0\nsamples = 18\nvalue = 810.0"] ;
629 -> 630 ;
631 [label="squared_error = 12251.24\nsamples = 11\nvalue = 818.182"] ;
630 -> 631 ;
632 [label="squared_error = 7477.551\nsamples = 7\nvalue = 797.143"] ;
630 -> 632 ;
633 [label="squared_error = 0.0\nsamples = 1\nvalue = 880.0"] ;
629 -> 633 ;
634 [label="squared_error = 0.0\nsamples = 1\nvalue = 900.0"] ;
628 -> 634 ;
635 [label="Q006_K <= 0.5\nsquared_error = 6884.0\nsamples = 20\nvalue = 846.0"] ;
587 -> 635 ;
636 [label="Q006_L <= 0.5\nsquared_error = 7352.889\nsamples = 15\nvalue = 837.333"] ;
635 -> 636 ;
637 [label="TP_COR_RACA_Não declarado <= 0.5\nsquared_error = 6500.0\nsamples = 4\nvalue = 810.0"] ;
636 -> 637 ;
638 [label="Q006_Q <= 0.5\nsquared_error = 8266.667\nsamples = 3\nvalue = 820.0"] ;
637 -> 638 ;
639 [label="squared_error = 0.0\nsamples = 1\nvalue = 840.0"] ;
638 -> 639 ;
640 [label="squared_error = 12100.0\nsamples = 2\nvalue = 810.0"] ;
638 -> 640 ;
641 [label="squared_error = 0.0\nsamples = 1\nvalue = 780.0"] ;
637 -> 641 ;
642 [label="squared_error = 7292.562\nsamples = 11\nvalue = 847.273"] ;
636 -> 642 ;
643 [label="TP_COR_RACA_Parda <= 0.5\nsquared_error = 4576.0\nsamples = 5\nvalue = 872.0"] ;
635 -> 643 ;
644 [label="squared_error = 0.0\nsamples = 1\nvalue = 920.0"] ;
643 -> 644 ;
645 [label="squared_error = 5000.0\nsamples = 4\nvalue = 860.0"] ;
643 -> 645 ;
646 [label="SG_UF_ESC_MA <= 0.5\nsquared_error = 16846.041\nsamples = 69\nvalue = 772.754"] ;
586 -> 646 ;
647 [label="TP_COR_RACA_Amarela <= 0.5\nsquared_error = 19455.36\nsamples = 50\nvalue = 760.8"] ;
646 -> 647 ;
648 [label="SG_UF_ESC_BA <= 0.5\nsquared_error = 19448.896\nsamples = 49\nvalue = 757.959"] ;
647 -> 648 ;
649 [label="SG_UF_ESC_AP <= 0.5\nsquared_error = 11908.264\nsamples = 22\nvalue = 739.091"] ;
648 -> 649 ;
650 [label="SG_UF_ESC_TO <= 0.5\nsquared_error = 12004.0\nsamples = 20\nvalue = 734.0"] ;
649 -> 650 ;
651 [label="SG_UF_ESC_RO <= 0.5\nsquared_error = 12571.745\nsamples = 19\nvalue = 735.789"] ;
650 -> 651 ;
652 [label="SG_UF_ESC_AC <= 0.5\nsquared_error = 13829.758\nsamples = 17\nvalue = 737.647"] ;
651 -> 652 ;
653 [label="squared_error = 13752.889\nsamples = 15\nvalue = 737.333"] ;
652 -> 653 ;
654 [label="squared_error = 14400.0\nsamples = 2\nvalue = 740.0"] ;
652 -> 654 ;
655 [label="squared_error = 1600.0\nsamples = 2\nvalue = 720.0"] ;
651 -> 655 ;
656 [label="squared_error = 0.0\nsamples = 1\nvalue = 700.0"] ;
650 -> 656 ;
657 [label="squared_error = 8100.0\nsamples = 2\nvalue = 790.0"] ;
649 -> 657 ;
658 [label="TP_COR_RACA_Parda <= 0.5\nsquared_error = 25066.667\nsamples = 27\nvalue = 773.333"] ;
648 -> 658 ;
659 [label="squared_error = 0.0\nsamples = 1\nvalue = 800.0"] ;
658 -> 659 ;
660 [label="squared_error = 26002.367\nsamples = 26\nvalue = 772.308"] ;
658 -> 660 ;
661 [label="squared_error = 0.0\nsamples = 1\nvalue = 900.0"] ;
647 -> 661 ;
662 [label="squared_error = 8613.85\nsamples = 19\nvalue = 804.211"] ;
646 -> 662 ;
663 [label="Q006_L <= 0.5\nsquared_error = 18850.684\nsamples = 41\nvalue = 769.268"] ;
585 -> 663 ;
664 [label="Q006_Q <= 0.5\nsquared_error = 13298.222\nsamples = 30\nvalue = 795.333"] ;
663 -> 664 ;
665 [label="Q006_I <= 0.5\nsquared_error = 13202.378\nsamples = 29\nvalue = 791.034"] ;
664 -> 665 ;
666 [label="Q006_K <= 0.5\nsquared_error = 16800.0\nsamples = 8\nvalue = 750.0"] ;
665 -> 666 ;
667 [label="squared_error = 13344.0\nsamples = 5\nvalue = 756.0"] ;
666 -> 667 ;
668 [label="squared_error = 22400.0\nsamples = 3\nvalue = 740.0"] ;
666 -> 668 ;
669 [label="TP_COR_RACA_Não declarado <= 0.5\nsquared_error = 10946.032\nsamples = 21\nvalue = 806.667"] ;
665 -> 669 ;
670 [label="TP_COR_RACA_Indígina <= 0.5\nsquared_error = 10747.922\nsamples = 19\nvalue = 816.842"] ;
669 -> 670 ;
671 [label="squared_error = 11344.444\nsamples = 18\nvalue = 816.667"] ;
670 -> 671 ;
672 [label="squared_error = 0.0\nsamples = 1\nvalue = 820.0"] ;
670 -> 672 ;
673 [label="squared_error = 2500.0\nsamples = 2\nvalue = 710.0"] ;
669 -> 673 ;
674 [label="squared_error = 0.0\nsamples = 1\nvalue = 920.0"] ;
664 -> 674 ;
675 [label="TP_COR_RACA_Parda <= 0.5\nsquared_error = 27087.603\nsamples = 11\nvalue = 698.182"] ;
663 -> 675 ;
676 [label="squared_error = 15555.556\nsamples = 3\nvalue = 746.667"] ;
675 -> 676 ;
677 [label="squared_error = 30200.0\nsamples = 8\nvalue = 680.0"] ;
675 -> 677 ;
678 [label="TP_COR_RACA_Não declarado <= 0.5\nsquared_error = 14739.394\nsamples = 33\nvalue = 760.0"] ;
584 -> 678 ;
679 [label="SG_UF_ESC_RO <= 0.5\nsquared_error = 12673.438\nsamples = 32\nvalue = 768.75"] ;
678 -> 679 ;
680 [label="SG_UF_ESC_MA <= 0.5\nsquared_error = 12089.333\nsamples = 30\nvalue = 778.0"] ;
679 -> 680 ;
681 [label="SG_UF_ESC_AP <= 0.5\nsquared_error = 9966.529\nsamples = 27\nvalue = 790.37"] ;
680 -> 681 ;
682 [label="SG_UF_ESC_PB <= 0.5\nsquared_error = 9671.006\nsamples = 26\nvalue = 795.385"] ;
681 -> 682 ;
683 [label="SG_UF_ESC_AC <= 0.5\nsquared_error = 8348.299\nsamples = 21\nvalue = 805.714"] ;
682 -> 683 ;
684 [label="SG_UF_ESC_RN <= 0.5\nsquared_error = 8299.0\nsamples = 20\nvalue = 801.0"] ;
683 -> 684 ;
685 [label="squared_error = 9270.588\nsamples = 17\nvalue = 800.0"] ;
684 -> 685 ;
686 [label="squared_error = 2755.556\nsamples = 3\nvalue = 806.667"] ;
684 -> 686 ;
687 [label="squared_error = 0.0\nsamples = 1\nvalue = 900.0"] ;
683 -> 687 ;
688 [label="squared_error = 12896.0\nsamples = 5\nvalue = 752.0"] ;
682 -> 688 ;
689 [label="squared_error = 0.0\nsamples = 1\nvalue = 660.0"] ;
681 -> 689 ;
690 [label="squared_error = 17422.222\nsamples = 3\nvalue = 666.667"] ;
680 -> 690 ;
691 [label="squared_error = 900.0\nsamples = 2\nvalue = 630.0"] ;
679 -> 691 ;
692 [label="squared_error = 0.0\nsamples = 1\nvalue = 480.0"] ;
678 -> 692 ;
693 [label="Q006_I <= 0.5\nsquared_error = 19993.253\nsamples = 77\nvalue = 771.688"] ;
583 -> 693 ;
694 [label="Q006_N <= 0.5\nsquared_error = 24384.0\nsamples = 45\nvalue = 750.667"] ;
693 -> 694 ;
695 [label="TP_COR_RACA_Não declarado <= 0.5\nsquared_error = 27346.26\nsamples = 38\nvalue = 738.947"] ;
694 -> 695 ;
696 [label="Q006_L <= 0.5\nsquared_error = 28280.247\nsamples = 36\nvalue = 734.444"] ;
695 -> 696 ;
697 [label="Q006_P <= 0.5\nsquared_error = 26233.333\nsamples = 24\nvalue = 750.0"] ;
696 -> 697 ;
698 [label="Q006_Q <= 0.5\nsquared_error = 29879.585\nsamples = 17\nvalue = 767.059"] ;
697 -> 698 ;
699 [label="squared_error = 31451.24\nsamples = 11\nvalue = 761.818"] ;
698 -> 699 ;
700 [label="squared_error = 26855.556\nsamples = 6\nvalue = 776.667"] ;
698 -> 700 ;
701 [label="squared_error = 14955.102\nsamples = 7\nvalue = 708.571"] ;
697 -> 701 ;
702 [label="squared_error = 30922.222\nsamples = 12\nvalue = 703.333"] ;
696 -> 702 ;
703 [label="Q006_Q <= 0.5\nsquared_error = 3600.0\nsamples = 2\nvalue = 820.0"] ;
695 -> 703 ;
704 [label="squared_error = 0.0\nsamples = 1\nvalue = 880.0"] ;
703 -> 704 ;
705 [label="squared_error = 0.0\nsamples = 1\nvalue = 760.0"] ;
703 -> 705 ;
706 [label="TP_COR_RACA_Amarela <= 0.5\nsquared_error = 3510.204\nsamples = 7\nvalue = 814.286"] ;
694 -> 706 ;
707 [label="squared_error = 3688.889\nsamples = 6\nvalue = 806.667"] ;
706 -> 707 ;
708 [label="squared_error = 0.0\nsamples = 1\nvalue = 860.0"] ;
706 -> 708 ;
709 [label="TP_COR_RACA_Não declarado <= 0.5\nsquared_error = 12323.438\nsamples = 32\nvalue = 801.25"] ;
693 -> 709 ;
710 [label="TP_COR_RACA_Parda <= 0.5\nsquared_error = 12251.405\nsamples = 31\nvalue = 797.419"] ;
709 -> 710 ;
711 [label="squared_error = 0.0\nsamples = 1\nvalue = 740.0"] ;
710 -> 711 ;
712 [label="squared_error = 12546.222\nsamples = 30\nvalue = 799.333"] ;
710 -> 712 ;
713 [label="squared_error = 0.0\nsamples = 1\nvalue = 920.0"] ;
709 -> 713 ;
714 [label="SG_UF_ESC_AC <= 0.5\nsquared_error = 17874.418\nsamples = 327\nvalue = 775.352"] ;
582 -> 714 ;
715 [label="SG_UF_ESC_PA <= 0.5\nsquared_error = 17786.552\nsamples = 326\nvalue = 776.012"] ;
714 -> 715 ;
716 [label="TP_COR_RACA_Parda <= 0.5\nsquared_error = 16063.401\nsamples = 241\nvalue = 770.29"] ;
715 -> 716 ;
717 [label="SG_UF_ESC_BA <= 0.5\nsquared_error = 17030.556\nsamples = 12\nvalue = 741.667"] ;
716 -> 717 ;
718 [label="SG_UF_ESC_RN <= 0.5\nsquared_error = 21664.0\nsamples = 5\nvalue = 656.0"] ;
717 -> 718 ;
719 [label="TP_COR_RACA_Amarela <= 0.5\nsquared_error = 22275.0\nsamples = 4\nvalue = 625.0"] ;
718 -> 719 ;
720 [label="SG_UF_ESC_MA <= 0.5\nsquared_error = 11022.222\nsamples = 3\nvalue = 693.333"] ;
719 -> 720 ;
721 [label="squared_error = 14400.0\nsamples = 2\nvalue = 720.0"] ;
720 -> 721 ;
722 [label="squared_error = 0.0\nsamples = 1\nvalue = 640.0"] ;
720 -> 722 ;
723 [label="squared_error = 0.0\nsamples = 1\nvalue = 420.0"] ;
719 -> 723 ;
724 [label="squared_error = 0.0\nsamples = 1\nvalue = 780.0"] ;
718 -> 724 ;
725 [label="TP_COR_RACA_Amarela <= 0.5\nsquared_error = 4734.694\nsamples = 7\nvalue = 802.857"] ;
717 -> 725 ;
726 [label="squared_error = 7200.0\nsamples = 3\nvalue = 800.0"] ;
725 -> 726 ;
727 [label="squared_error = 2875.0\nsamples = 4\nvalue = 805.0"] ;
725 -> 727 ;
728 [label="SG_UF_ESC_RO <= 0.5\nsquared_error = 15967.537\nsamples = 229\nvalue = 771.79"] ;
716 -> 728 ;
729 [label="SG_UF_ESC_TO <= 0.5\nsquared_error = 16048.908\nsamples = 226\nvalue = 771.239"] ;
728 -> 729 ;
730 [label="SG_UF_ESC_MA <= 0.5\nsquared_error = 15950.992\nsamples = 221\nvalue = 770.769"] ;
729 -> 730 ;
731 [label="SG_UF_ESC_PB <= 0.5\nsquared_error = 15532.587\nsamples = 190\nvalue = 771.789"] ;
730 -> 731 ;
732 [label="SG_UF_ESC_RN <= 0.5\nsquared_error = 15822.71\nsamples = 162\nvalue = 770.864"] ;
731 -> 732 ;
733 [label="SG_UF_ESC_AP <= 0.5\nsquared_error = 15096.852\nsamples = 124\nvalue = 771.774"] ;
732 -> 733 ;
734 [label="squared_error = 14731.866\nsamples = 113\nvalue = 771.327"] ;
733 -> 734 ;
735 [label="squared_error = 18823.14\nsamples = 11\nvalue = 776.364"] ;
733 -> 735 ;
736 [label="squared_error = 18179.778\nsamples = 38\nvalue = 767.895"] ;
732 -> 736 ;
737 [label="squared_error = 13820.408\nsamples = 28\nvalue = 777.143"] ;
731 -> 737 ;
738 [label="squared_error = 18469.927\nsamples = 31\nvalue = 764.516"] ;
730 -> 738 ;
739 [label="squared_error = 19936.0\nsamples = 5\nvalue = 792.0"] ;
729 -> 739 ;
740 [label="squared_error = 8088.889\nsamples = 3\nvalue = 813.333"] ;
728 -> 740 ;
741 [label="TP_COR_RACA_Amarela <= 0.5\nsquared_error = 22316.18\nsamples = 85\nvalue = 792.235"] ;
715 -> 741 ;
742 [label="TP_COR_RACA_Parda <= 0.5\nsquared_error = 22144.307\nsamples = 81\nvalue = 790.37"] ;
741 -> 742 ;
743 [label="squared_error = 12000.0\nsamples = 5\nvalue = 780.0"] ;
742 -> 743 ;
744 [label="squared_error = 22804.155\nsamples = 76\nvalue = 791.053"] ;
742 -> 744 ;
745 [label="squared_error = 24300.0\nsamples = 4\nvalue = 830.0"] ;
741 -> 745 ;
746 [label="squared_error = 0.0\nsamples = 1\nvalue = 560.0"] ;
714 -> 746 ;
747 [label="Q006_N <= 0.5\nsquared_error = 14646.713\nsamples = 34\nvalue = 759.412"] ;
581 -> 747 ;
748 [label="TP_COR_RACA_Indígina <= 0.5\nsquared_error = 14680.541\nsamples = 31\nvalue = 749.677"] ;
747 -> 748 ;
749 [label="Q006_L <= 0.5\nsquared_error = 14590.667\nsamples = 30\nvalue = 754.0"] ;
748 -> 749 ;
750 [label="Q006_I <= 0.5\nsquared_error = 14996.982\nsamples = 27\nvalue = 747.407"] ;
749 -> 750 ;
751 [label="TP_COR_RACA_Não declarado <= 0.5\nsquared_error = 15773.157\nsamples = 23\nvalue = 739.13"] ;
750 -> 751 ;
752 [label="Q006_P <= 0.5\nsquared_error = 15984.0\nsamples = 20\nvalue = 736.0"] ;
751 -> 752 ;
753 [label="Q006_Q <= 0.5\nsquared_error = 16793.352\nsamples = 19\nvalue = 734.737"] ;
752 -> 753 ;
754 [label="TP_COR_RACA_Parda <= 0.5\nsquared_error = 14910.938\nsamples = 16\nvalue = 736.25"] ;
753 -> 754 ;
755 [label="squared_error = 0.0\nsamples = 1\nvalue = 720.0"] ;
754 -> 755 ;
756 [label="Q006_K <= 0.5\nsquared_error = 15886.222\nsamples = 15\nvalue = 737.333"] ;
754 -> 756 ;
757 [label="squared_error = 19430.556\nsamples = 12\nvalue = 738.333"] ;
756 -> 757 ;
758 [label="squared_error = 1688.889\nsamples = 3\nvalue = 733.333"] ;
756 -> 758 ;
759 [label="squared_error = 26755.556\nsamples = 3\nvalue = 726.667"] ;
753 -> 759 ;
760 [label="squared_error = 0.0\nsamples = 1\nvalue = 760.0"] ;
752 -> 760 ;
761 [label="Q006_K <= 0.5\nsquared_error = 13866.667\nsamples = 3\nvalue = 760.0"] ;
751 -> 761 ;
762 [label="squared_error = 0.0\nsamples = 1\nvalue = 800.0"] ;
761 -> 762 ;
763 [label="squared_error = 19600.0\nsamples = 2\nvalue = 740.0"] ;
761 -> 763 ;
764 [label="TP_COR_RACA_Não declarado <= 0.5\nsquared_error = 7875.0\nsamples = 4\nvalue = 795.0"] ;
750 -> 764 ;
765 [label="squared_error = 10400.0\nsamples = 3\nvalue = 800.0"] ;
764 -> 765 ;
766 [label="squared_error = 0.0\nsamples = 1\nvalue = 780.0"] ;
764 -> 766 ;
767 [label="TP_COR_RACA_Parda <= 0.5\nsquared_error = 7022.222\nsamples = 3\nvalue = 813.333"] ;
749 -> 767 ;
768 [label="squared_error = 0.0\nsamples = 1\nvalue = 700.0"] ;
767 -> 768 ;
769 [label="squared_error = 900.0\nsamples = 2\nvalue = 870.0"] ;
767 -> 769 ;
770 [label="squared_error = 0.0\nsamples = 1\nvalue = 620.0"] ;
748 -> 770 ;
771 [label="TP_COR_RACA_Parda <= 0.5\nsquared_error = 3200.0\nsamples = 3\nvalue = 860.0"] ;
747 -> 771 ;
772 [label="squared_error = 0.0\nsamples = 1\nvalue = 940.0"] ;
771 -> 772 ;
773 [label="squared_error = 0.0\nsamples = 2\nvalue = 820.0"] ;
771 -> 773 ;
774 [label="Q006_I <= 0.5\nsquared_error = 19817.103\nsamples = 137\nvalue = 757.81"] ;
580 -> 774 ;
775 [label="TP_COR_RACA_Amarela <= 0.5\nsquared_error = 17887.468\nsamples = 112\nvalue = 767.679"] ;
774 -> 775 ;
776 [label="Q006_H <= 0.5\nsquared_error = 17757.678\nsamples = 105\nvalue = 761.524"] ;
775 -> 776 ;
777 [label="Q006_P <= 0.5\nsquared_error = 14197.309\nsamples = 51\nvalue = 787.843"] ;
776 -> 777 ;
778 [label="Q006_K <= 0.5\nsquared_error = 13708.167\nsamples = 43\nvalue = 801.86"] ;
777 -> 778 ;
779 [label="TP_COR_RACA_Não declarado <= 0.5\nsquared_error = 14511.614\nsamples = 37\nvalue = 797.297"] ;
778 -> 779 ;
780 [label="Q006_L <= 0.5\nsquared_error = 14787.889\nsamples = 34\nvalue = 799.412"] ;
779 -> 780 ;
781 [label="Q006_N <= 0.5\nsquared_error = 21911.111\nsamples = 18\nvalue = 800.0"] ;
780 -> 781 ;
782 [label="squared_error = 13400.0\nsamples = 12\nvalue = 800.0"] ;
781 -> 782 ;
783 [label="squared_error = 38933.333\nsamples = 6\nvalue = 800.0"] ;
781 -> 783 ;
784 [label="squared_error = 6773.438\nsamples = 16\nvalue = 798.75"] ;
780 -> 784 ;
785 [label="Q006_L <= 0.5\nsquared_error = 10755.556\nsamples = 3\nvalue = 773.333"] ;
779 -> 785 ;
786 [label="squared_error = 0.0\nsamples = 1\nvalue = 700.0"] ;
785 -> 786 ;
787 [label="squared_error = 12100.0\nsamples = 2\nvalue = 810.0"] ;
785 -> 787 ;
788 [label="squared_error = 7833.333\nsamples = 6\nvalue = 830.0"] ;
778 -> 788 ;
789 [label="squared_error = 10093.75\nsamples = 8\nvalue = 712.5"] ;
777 -> 789 ;
790 [label="TP_COR_RACA_Parda <= 0.5\nsquared_error = 19848.148\nsamples = 54\nvalue = 736.667"] ;
776 -> 790 ;
791 [label="squared_error = 13788.889\nsamples = 6\nvalue = 723.333"] ;
790 -> 791 ;
792 [label="squared_error = 20580.556\nsamples = 48\nvalue = 738.333"] ;
790 -> 792 ;
793 [label="Q006_K <= 0.5\nsquared_error = 10742.857\nsamples = 7\nvalue = 860.0"] ;
775 -> 793 ;
794 [label="Q006_L <= 0.5\nsquared_error = 1333.333\nsamples = 6\nvalue = 900.0"] ;
793 -> 794 ;
795 [label="Q006_Q <= 0.5\nsquared_error = 736.0\nsamples = 5\nvalue = 912.0"] ;
794 -> 795 ;
796 [label="squared_error = 622.222\nsamples = 3\nvalue = 926.667"] ;
795 -> 796 ;
797 [label="squared_error = 100.0\nsamples = 2\nvalue = 890.0"] ;
795 -> 797 ;
798 [label="squared_error = 0.0\nsamples = 1\nvalue = 840.0"] ;
794 -> 798 ;
799 [label="squared_error = 0.0\nsamples = 1\nvalue = 620.0"] ;
793 -> 799 ;
800 [label="TP_COR_RACA_Amarela <= 0.5\nsquared_error = 26071.04\nsamples = 25\nvalue = 713.6"] ;
774 -> 800 ;
801 [label="TP_COR_RACA_Não declarado <= 0.5\nsquared_error = 21730.556\nsamples = 24\nvalue = 728.333"] ;
800 -> 801 ;
802 [label="squared_error = 22031.746\nsamples = 21\nvalue = 713.333"] ;
801 -> 802 ;
803 [label="squared_error = 7022.222\nsamples = 3\nvalue = 833.333"] ;
801 -> 803 ;
804 [label="squared_error = 0.0\nsamples = 1\nvalue = 360.0"] ;
800 -> 804 ;
805 [label="SG_UF_ESC_AP <= 0.5\nsquared_error = 15097.284\nsamples = 45\nvalue = 802.222"] ;
579 -> 805 ;
806 [label="SG_UF_ESC_MA <= 0.5\nsquared_error = 14076.653\nsamples = 44\nvalue = 807.727"] ;
805 -> 806 ;
807 [label="SG_UF_ESC_GO <= 0.5\nsquared_error = 14262.463\nsamples = 41\nvalue = 800.976"] ;
806 -> 807 ;
808 [label="TP_COR_RACA_Parda <= 0.5\nsquared_error = 14668.871\nsamples = 33\nvalue = 789.091"] ;
807 -> 808 ;
809 [label="SG_UF_ESC_RS <= 0.5\nsquared_error = 24266.667\nsamples = 3\nvalue = 680.0"] ;
808 -> 809 ;
810 [label="SG_UF_ESC_BA <= 0.5\nsquared_error = 6400.0\nsamples = 2\nvalue = 780.0"] ;
809 -> 810 ;
811 [label="squared_error = 0.0\nsamples = 1\nvalue = 700.0"] ;
810 -> 811 ;
812 [label="squared_error = 0.0\nsamples = 1\nvalue = 860.0"] ;
810 -> 812 ;
813 [label="squared_error = 0.0\nsamples = 1\nvalue = 480.0"] ;
809 -> 813 ;
814 [label="SG_UF_ESC_RN <= 0.5\nsquared_error = 12400.0\nsamples = 30\nvalue = 800.0"] ;
808 -> 814 ;
815 [label="SG_UF_ESC_BA <= 0.5\nsquared_error = 10855.556\nsamples = 24\nvalue = 813.333"] ;
814 -> 815 ;
816 [label="SG_UF_ESC_RO <= 0.5\nsquared_error = 8763.889\nsamples = 12\nvalue = 851.667"] ;
815 -> 816 ;
817 [label="SG_UF_ESC_TO <= 0.5\nsquared_error = 9328.926\nsamples = 11\nvalue = 847.273"] ;
816 -> 817 ;
818 [label="SG_UF_ESC_PA <= 0.5\nsquared_error = 10144.0\nsamples = 10\nvalue = 844.0"] ;
817 -> 818 ;
819 [label="SG_UF_ESC_PB <= 0.5\nsquared_error = 10016.0\nsamples = 5\nvalue = 848.0"] ;
818 -> 819 ;
820 [label="squared_error = 16900.0\nsamples = 2\nvalue = 850.0"] ;
819 -> 820 ;
821 [label="squared_error = 5422.222\nsamples = 3\nvalue = 846.667"] ;
819 -> 821 ;
822 [label="squared_error = 10240.0\nsamples = 5\nvalue = 840.0"] ;
818 -> 822 ;
823 [label="squared_error = 0.0\nsamples = 1\nvalue = 880.0"] ;
817 -> 823 ;
824 [label="squared_error = 0.0\nsamples = 1\nvalue = 900.0"] ;
816 -> 824 ;
825 [label="squared_error = 10008.333\nsamples = 12\nvalue = 775.0"] ;
815 -> 825 ;
826 [label="squared_error = 15022.222\nsamples = 6\nvalue = 746.667"] ;
814 -> 826 ;
827 [label="TP_COR_RACA_Parda <= 0.5\nsquared_error = 9600.0\nsamples = 8\nvalue = 850.0"] ;
807 -> 827 ;
828 [label="TP_COR_RACA_Não declarado <= 0.5\nsquared_error = 400.0\nsamples = 2\nvalue = 900.0"] ;
827 -> 828 ;
829 [label="squared_error = 0.0\nsamples = 1\nvalue = 880.0"] ;
828 -> 829 ;
830 [label="squared_error = 0.0\nsamples = 1\nvalue = 920.0"] ;
828 -> 830 ;
831 [label="squared_error = 11555.556\nsamples = 6\nvalue = 833.333"] ;
827 -> 831 ;
832 [label="TP_COR_RACA_Não declarado <= 0.5\nsquared_error = 2400.0\nsamples = 3\nvalue = 900.0"] ;
806 -> 832 ;
833 [label="squared_error = 3600.0\nsamples = 2\nvalue = 900.0"] ;
832 -> 833 ;
834 [label="squared_error = 0.0\nsamples = 1\nvalue = 900.0"] ;
832 -> 834 ;
835 [label="squared_error = 0.0\nsamples = 1\nvalue = 560.0"] ;
805 -> 835 ;
836 [label="Q006_L <= 0.5\nsquared_error = 17747.265\nsamples = 70\nvalue = 801.143"] ;
578 -> 836 ;
837 [label="Q006_N <= 0.5\nsquared_error = 18013.184\nsamples = 64\nvalue = 793.438"] ;
836 -> 837 ;
838 [label="TP_COR_RACA_Parda <= 0.5\nsquared_error = 18422.222\nsamples = 60\nvalue = 786.667"] ;
837 -> 838 ;
839 [label="Q006_I <= 0.5\nsquared_error = 88.889\nsamples = 3\nvalue = 706.667"] ;
838 -> 839 ;
840 [label="squared_error = 0.0\nsamples = 2\nvalue = 700.0"] ;
839 -> 840 ;
841 [label="squared_error = 0.0\nsamples = 1\nvalue = 720.0"] ;
839 -> 841 ;
842 [label="Q006_Q <= 0.5\nsquared_error = 19032.564\nsamples = 57\nvalue = 790.877"] ;
838 -> 842 ;
843 [label="Q006_P <= 0.5\nsquared_error = 17828.395\nsamples = 54\nvalue = 794.444"] ;
842 -> 843 ;
844 [label="Q006_H <= 0.5\nsquared_error = 17802.582\nsamples = 49\nvalue = 798.776"] ;
843 -> 844 ;
845 [label="Q006_O <= 0.5\nsquared_error = 14614.059\nsamples = 21\nvalue = 816.19"] ;
844 -> 845 ;
846 [label="Q006_I <= 0.5\nsquared_error = 15756.233\nsamples = 19\nvalue = 812.632"] ;
845 -> 846 ;
847 [label="squared_error = 18464.0\nsamples = 5\nvalue = 824.0"] ;
846 -> 847 ;
848 [label="squared_error = 14726.531\nsamples = 14\nvalue = 808.571"] ;
846 -> 848 ;
849 [label="squared_error = 2500.0\nsamples = 2\nvalue = 850.0"] ;
845 -> 849 ;
850 [label="squared_error = 19795.918\nsamples = 28\nvalue = 785.714"] ;
844 -> 850 ;
851 [label="squared_error = 16096.0\nsamples = 5\nvalue = 752.0"] ;
843 -> 851 ;
852 [label="squared_error = 36355.556\nsamples = 3\nvalue = 726.667"] ;
842 -> 852 ;
853 [label="squared_error = 875.0\nsamples = 4\nvalue = 895.0"] ;
837 -> 853 ;
854 [label="squared_error = 7522.222\nsamples = 6\nvalue = 883.333"] ;
836 -> 854 ;
855 [label="Q006_I <= 0.5\nsquared_error = 2500.0\nsamples = 2\nvalue = 630.0"] ;
577 -> 855 ;
856 [label="squared_error = 0.0\nsamples = 1\nvalue = 580.0"] ;
855 -> 856 ;
857 [label="squared_error = 0.0\nsamples = 1\nvalue = 680.0"] ;
855 -> 857 ;
858 [label="Q006_P <= 0.5\nsquared_error = 19206.95\nsamples = 67\nvalue = 745.373"] ;
576 -> 858 ;
859 [label="Q006_O <= 0.5\nsquared_error = 19172.911\nsamples = 66\nvalue = 747.576"] ;
858 -> 859 ;
860 [label="Q006_N <= 0.5\nsquared_error = 20128.783\nsamples = 61\nvalue = 743.934"] ;
859 -> 860 ;
861 [label="Q006_K <= 0.5\nsquared_error = 19535.587\nsamples = 56\nvalue = 740.357"] ;
860 -> 861 ;
862 [label="TP_COR_RACA_Não declarado <= 0.5\nsquared_error = 19639.523\nsamples = 51\nvalue = 737.255"] ;
861 -> 862 ;
863 [label="Q006_I <= 0.5\nsquared_error = 18351.04\nsamples = 46\nvalue = 735.217"] ;
862 -> 863 ;
864 [label="TP_COR_RACA_Parda <= 0.5\nsquared_error = 18293.772\nsamples = 34\nvalue = 739.412"] ;
863 -> 864 ;
865 [label="Q006_L <= 0.5\nsquared_error = 1600.0\nsamples = 2\nvalue = 720.0"] ;
864 -> 865 ;
866 [label="squared_error = 0.0\nsamples = 1\nvalue = 680.0"] ;
865 -> 866 ;
867 [label="squared_error = 0.0\nsamples = 1\nvalue = 760.0"] ;
865 -> 867 ;
868 [label="Q006_H <= 0.5\nsquared_error = 19312.109\nsamples = 32\nvalue = 740.625"] ;
864 -> 868 ;
869 [label="squared_error = 52384.0\nsamples = 5\nvalue = 744.0"] ;
868 -> 869 ;
870 [label="squared_error = 13185.185\nsamples = 27\nvalue = 740.0"] ;
868 -> 870 ;
871 [label="squared_error = 18322.222\nsamples = 12\nvalue = 723.333"] ;
863 -> 871 ;
872 [label="Q006_H <= 0.5\nsquared_error = 31104.0\nsamples = 5\nvalue = 756.0"] ;
862 -> 872 ;
873 [label="Q006_Q <= 0.5\nsquared_error = 400.0\nsamples = 2\nvalue = 800.0"] ;
872 -> 873 ;
874 [label="squared_error = 0.0\nsamples = 1\nvalue = 820.0"] ;
873 -> 874 ;
875 [label="squared_error = 0.0\nsamples = 1\nvalue = 780.0"] ;
873 -> 875 ;
876 [label="squared_error = 49422.222\nsamples = 3\nvalue = 726.667"] ;
872 -> 876 ;
877 [label="squared_error = 17376.0\nsamples = 5\nvalue = 772.0"] ;
861 -> 877 ;
878 [label="squared_error = 25024.0\nsamples = 5\nvalue = 784.0"] ;
860 -> 878 ;
879 [label="TP_COR_RACA_Parda <= 0.5\nsquared_error = 5376.0\nsamples = 5\nvalue = 792.0"] ;
859 -> 879 ;
880 [label="squared_error = 0.0\nsamples = 1\nvalue = 720.0"] ;
879 -> 880 ;
881 [label="squared_error = 5100.0\nsamples = 4\nvalue = 810.0"] ;
879 -> 881 ;
882 [label="squared_error = 0.0\nsamples = 1\nvalue = 600.0"] ;
858 -> 882 ;
883 [label="Q006_P <= 0.5\nsquared_error = 23653.119\nsamples = 46\nvalue = 733.478"] ;
575 -> 883 ;
884 [label="Q006_K <= 0.5\nsquared_error = 23371.429\nsamples = 42\nvalue = 720.0"] ;
883 -> 884 ;
885 [label="Q006_O <= 0.5\nsquared_error = 24970.637\nsamples = 38\nvalue = 726.316"] ;
884 -> 885 ;
886 [label="Q006_I <= 0.5\nsquared_error = 18594.674\nsamples = 33\nvalue = 735.152"] ;
885 -> 886 ;
887 [label="Q006_L <= 0.5\nsquared_error = 15020.71\nsamples = 26\nvalue = 728.462"] ;
886 -> 887 ;
888 [label="TP_COR_RACA_Parda <= 0.5\nsquared_error = 11960.111\nsamples = 19\nvalue = 733.684"] ;
887 -> 888 ;
889 [label="Q006_H <= 0.5\nsquared_error = 8914.286\nsamples = 7\nvalue = 720.0"] ;
888 -> 889 ;
890 [label="squared_error = 0.0\nsamples = 1\nvalue = 740.0"] ;
889 -> 890 ;
891 [label="TP_COR_RACA_Amarela <= 0.5\nsquared_error = 10322.222\nsamples = 6\nvalue = 716.667"] ;
889 -> 891 ;
892 [label="squared_error = 3600.0\nsamples = 2\nvalue = 700.0"] ;
891 -> 892 ;
893 [label="squared_error = 13475.0\nsamples = 4\nvalue = 725.0"] ;
891 -> 893 ;
894 [label="Q006_H <= 0.5\nsquared_error = 13563.889\nsamples = 12\nvalue = 741.667"] ;
888 -> 894 ;
895 [label="squared_error = 400.0\nsamples = 2\nvalue = 740.0"] ;
894 -> 895 ;
896 [label="squared_error = 16196.0\nsamples = 10\nvalue = 742.0"] ;
894 -> 896 ;
897 [label="squared_error = 23053.061\nsamples = 7\nvalue = 714.286"] ;
887 -> 897 ;
898 [label="squared_error = 31085.714\nsamples = 7\nvalue = 760.0"] ;
886 -> 898 ;
899 [label="TP_COR_RACA_Parda <= 0.5\nsquared_error = 63136.0\nsamples = 5\nvalue = 668.0"] ;
885 -> 899 ;
900 [label="squared_error = 0.0\nsamples = 1\nvalue = 940.0"] ;
899 -> 900 ;
901 [label="squared_error = 55800.0\nsamples = 4\nvalue = 600.0"] ;
899 -> 901 ;
902 [label="squared_error = 4200.0\nsamples = 4\nvalue = 660.0"] ;
884 -> 902 ;
903 [label="TP_COR_RACA_Parda <= 0.5\nsquared_error = 4675.0\nsamples = 4\nvalue = 875.0"] ;
883 -> 903 ;
904 [label="squared_error = 0.0\nsamples = 1\nvalue = 940.0"] ;
903 -> 904 ;
905 [label="squared_error = 4355.556\nsamples = 3\nvalue = 853.333"] ;
903 -> 905 ;
906 [label="SG_UF_ESC_MA <= 0.5\nsquared_error = 20178.965\nsamples = 301\nvalue = 758.671"] ;
574 -> 906 ;
907 [label="TP_COR_RACA_Amarela <= 0.5\nsquared_error = 19582.248\nsamples = 288\nvalue = 762.292"] ;
906 -> 907 ;
908 [label="SG_UF_ESC_AC <= 0.5\nsquared_error = 19844.036\nsamples = 280\nvalue = 760.5"] ;
907 -> 908 ;
909 [label="SG_UF_ESC_MT <= 0.5\nsquared_error = 19862.931\nsamples = 279\nvalue = 760.932"] ;
908 -> 909 ;
910 [label="SG_UF_ESC_RN <= 0.5\nsquared_error = 20315.153\nsamples = 269\nvalue = 759.703"] ;
909 -> 910 ;
911 [label="SG_UF_ESC_AP <= 0.5\nsquared_error = 20145.661\nsamples = 246\nvalue = 757.642"] ;
910 -> 911 ;
912 [label="SG_UF_ESC_PA <= 0.5\nsquared_error = 20265.54\nsamples = 244\nvalue = 757.131"] ;
911 -> 912 ;
913 [label="TP_COR_RACA_Parda <= 0.5\nsquared_error = 19540.73\nsamples = 189\nvalue = 754.18"] ;
912 -> 913 ;
914 [label="SG_UF_ESC_GO <= 0.5\nsquared_error = 16366.667\nsamples = 12\nvalue = 730.0"] ;
913 -> 914 ;
915 [label="SG_UF_ESC_PB <= 0.5\nsquared_error = 10993.75\nsamples = 8\nvalue = 787.5"] ;
914 -> 915 ;
916 [label="SG_UF_ESC_RS <= 0.5\nsquared_error = 8500.0\nsamples = 6\nvalue = 750.0"] ;
915 -> 916 ;
917 [label="SG_UF_ESC_AL <= 0.5\nsquared_error = 4875.0\nsamples = 4\nvalue = 705.0"] ;
916 -> 917 ;
918 [label="TP_COR_RACA_Indígina <= 0.5\nsquared_error = 400.0\nsamples = 2\nvalue = 640.0"] ;
917 -> 918 ;
919 [label="squared_error = 0.0\nsamples = 1\nvalue = 620.0"] ;
918 -> 919 ;
920 [label="squared_error = 0.0\nsamples = 1\nvalue = 660.0"] ;
918 -> 920 ;
921 [label="TP_COR_RACA_Não declarado <= 0.5\nsquared_error = 900.0\nsamples = 2\nvalue = 770.0"] ;
917 -> 921 ;
922 [label="squared_error = 0.0\nsamples = 1\nvalue = 740.0"] ;
921 -> 922 ;
923 [label="squared_error = 0.0\nsamples = 1\nvalue = 800.0"] ;
921 -> 923 ;
924 [label="squared_error = 3600.0\nsamples = 2\nvalue = 840.0"] ;
916 -> 924 ;
925 [label="squared_error = 1600.0\nsamples = 2\nvalue = 900.0"] ;
915 -> 925 ;
926 [label="squared_error = 7275.0\nsamples = 4\nvalue = 615.0"] ;
914 -> 926 ;
927 [label="SG_UF_ESC_GO <= 0.5\nsquared_error = 19713.594\nsamples = 177\nvalue = 755.819"] ;
913 -> 927 ;
928 [label="SG_UF_ESC_RS <= 0.5\nsquared_error = 20131.67\nsamples = 149\nvalue = 750.738"] ;
927 -> 928 ;
929 [label="SG_UF_ESC_RO <= 0.5\nsquared_error = 19656.198\nsamples = 143\nvalue = 752.727"] ;
928 -> 929 ;
930 [label="SG_UF_ESC_TO <= 0.5\nsquared_error = 19737.975\nsamples = 138\nvalue = 753.768"] ;
929 -> 930 ;
931 [label="SG_UF_ESC_RR <= 0.5\nsquared_error = 20107.632\nsamples = 135\nvalue = 753.185"] ;
930 -> 931 ;
932 [label="SG_UF_ESC_ES <= 0.5\nsquared_error = 20249.41\nsamples = 134\nvalue = 753.433"] ;
931 -> 932 ;
933 [label="SG_UF_ESC_PB <= 0.5\nsquared_error = 20364.062\nsamples = 118\nvalue = 753.729"] ;
932 -> 933 ;
934 [label="SG_UF_ESC_BA <= 0.5\nsquared_error = 19977.686\nsamples = 88\nvalue = 753.636"] ;
933 -> 934 ;
935 [label="squared_error = 24254.848\nsamples = 19\nvalue = 753.684"] ;
934 -> 935 ;
936 [label="squared_error = 18799.916\nsamples = 69\nvalue = 753.623"] ;
934 -> 936 ;
937 [label="squared_error = 21497.333\nsamples = 30\nvalue = 754.0"] ;
933 -> 937 ;
938 [label="squared_error = 19398.438\nsamples = 16\nvalue = 751.25"] ;
932 -> 938 ;
939 [label="squared_error = 0.0\nsamples = 1\nvalue = 720.0"] ;
931 -> 939 ;
940 [label="squared_error = 2400.0\nsamples = 3\nvalue = 780.0"] ;
930 -> 940 ;
941 [label="squared_error = 16544.0\nsamples = 5\nvalue = 724.0"] ;
929 -> 941 ;
942 [label="squared_error = 29122.222\nsamples = 6\nvalue = 703.333"] ;
928 -> 942 ;
943 [label="squared_error = 16620.408\nsamples = 28\nvalue = 782.857"] ;
927 -> 943 ;
944 [label="TP_COR_RACA_Não declarado <= 0.5\nsquared_error = 22623.471\nsamples = 55\nvalue = 767.273"] ;
912 -> 944 ;
945 [label="squared_error = 22479.698\nsamples = 54\nvalue = 764.074"] ;
944 -> 945 ;
946 [label="squared_error = 0.0\nsamples = 1\nvalue = 940.0"] ;
944 -> 946 ;
947 [label="squared_error = 1600.0\nsamples = 2\nvalue = 820.0"] ;
911 -> 947 ;
948 [label="squared_error = 21596.975\nsamples = 23\nvalue = 781.739"] ;
910 -> 948 ;
949 [label="TP_COR_RACA_Parda <= 0.5\nsquared_error = 6564.0\nsamples = 10\nvalue = 794.0"] ;
909 -> 949 ;
950 [label="squared_error = 0.0\nsamples = 1\nvalue = 600.0"] ;
949 -> 950 ;
951 [label="squared_error = 2646.914\nsamples = 9\nvalue = 815.556"] ;
949 -> 951 ;
952 [label="squared_error = 0.0\nsamples = 1\nvalue = 640.0"] ;
908 -> 952 ;
953 [label="SG_UF_ESC_TO <= 0.5\nsquared_error = 6375.0\nsamples = 8\nvalue = 825.0"] ;
907 -> 953 ;
954 [label="SG_UF_ESC_GO <= 0.5\nsquared_error = 4734.694\nsamples = 7\nvalue = 842.857"] ;
953 -> 954 ;
955 [label="SG_UF_ESC_PA <= 0.5\nsquared_error = 266.667\nsamples = 3\nvalue = 880.0"] ;
954 -> 955 ;
956 [label="SG_UF_ESC_MT <= 0.5\nsquared_error = 100.0\nsamples = 2\nvalue = 870.0"] ;
955 -> 956 ;
957 [label="squared_error = 0.0\nsamples = 1\nvalue = 860.0"] ;
956 -> 957 ;
958 [label="squared_error = 0.0\nsamples = 1\nvalue = 880.0"] ;
956 -> 958 ;
959 [label="squared_error = 0.0\nsamples = 1\nvalue = 900.0"] ;
955 -> 959 ;
960 [label="squared_error = 6275.0\nsamples = 4\nvalue = 815.0"] ;
954 -> 960 ;
961 [label="squared_error = 0.0\nsamples = 1\nvalue = 700.0"] ;
953 -> 961 ;
962 [label="TP_COR_RACA_Não declarado <= 0.5\nsquared_error = 26674.556\nsamples = 13\nvalue = 678.462"] ;
906 -> 962 ;
963 [label="squared_error = 24680.992\nsamples = 11\nvalue = 710.909"] ;
962 -> 963 ;
964 [label="squared_error = 0.0\nsamples = 2\nvalue = 500.0"] ;
962 -> 964 ;
965 [label="TP_COR_RACA_Não declarado <= 0.5\nsquared_error = 18790.531\nsamples = 35\nvalue = 715.429"] ;
573 -> 965 ;
966 [label="Q006_F <= 0.5\nsquared_error = 17816.263\nsamples = 34\nvalue = 708.824"] ;
965 -> 966 ;
967 [label="Q006_L <= 0.5\nsquared_error = 17868.889\nsamples = 30\nvalue = 696.667"] ;
966 -> 967 ;
968 [label="Q006_H <= 0.5\nsquared_error = 13294.675\nsamples = 26\nvalue = 707.692"] ;
967 -> 968 ;
969 [label="Q006_Q <= 0.5\nsquared_error = 7273.438\nsamples = 16\nvalue = 721.25"] ;
968 -> 969 ;
970 [label="Q006_K <= 0.5\nsquared_error = 7642.857\nsamples = 14\nvalue = 730.0"] ;
969 -> 970 ;
971 [label="TP_COR_RACA_Parda <= 0.5\nsquared_error = 8023.669\nsamples = 13\nvalue = 726.154"] ;
970 -> 971 ;
972 [label="Q006_N <= 0.5\nsquared_error = 10000.0\nsamples = 2\nvalue = 760.0"] ;
971 -> 972 ;
973 [label="squared_error = 0.0\nsamples = 1\nvalue = 660.0"] ;
972 -> 973 ;
974 [label="squared_error = 0.0\nsamples = 1\nvalue = 860.0"] ;
972 -> 974 ;
975 [label="Q006_O <= 0.5\nsquared_error = 7418.182\nsamples = 11\nvalue = 720.0"] ;
971 -> 975 ;
976 [label="Q006_I <= 0.5\nsquared_error = 7764.0\nsamples = 10\nvalue = 714.0"] ;
975 -> 976 ;
977 [label="squared_error = 2500.0\nsamples = 2\nvalue = 690.0"] ;
976 -> 977 ;
978 [label="squared_error = 8900.0\nsamples = 8\nvalue = 720.0"] ;
976 -> 978 ;
979 [label="squared_error = 0.0\nsamples = 1\nvalue = 780.0"] ;
975 -> 979 ;
980 [label="squared_error = 0.0\nsamples = 1\nvalue = 780.0"] ;
970 -> 980 ;
981 [label="TP_COR_RACA_Parda <= 0.5\nsquared_error = 400.0\nsamples = 2\nvalue = 660.0"] ;
969 -> 981 ;
982 [label="squared_error = 0.0\nsamples = 1\nvalue = 680.0"] ;
981 -> 982 ;
983 [label="squared_error = 0.0\nsamples = 1\nvalue = 640.0"] ;
981 -> 983 ;
984 [label="TP_COR_RACA_Parda <= 0.5\nsquared_error = 22164.0\nsamples = 10\nvalue = 686.0"] ;
968 -> 984 ;
985 [label="squared_error = 0.0\nsamples = 1\nvalue = 760.0"] ;
984 -> 985 ;
986 [label="squared_error = 23950.617\nsamples = 9\nvalue = 677.778"] ;
984 -> 986 ;
987 [label="TP_COR_RACA_Amarela <= 0.5\nsquared_error = 41675.0\nsamples = 4\nvalue = 625.0"] ;
967 -> 987 ;
988 [label="squared_error = 6400.0\nsamples = 2\nvalue = 540.0"] ;
987 -> 988 ;
989 [label="squared_error = 62500.0\nsamples = 2\nvalue = 710.0"] ;
987 -> 989 ;
990 [label="squared_error = 8000.0\nsamples = 4\nvalue = 800.0"] ;
966 -> 990 ;
991 [label="squared_error = 0.0\nsamples = 1\nvalue = 940.0"] ;
965 -> 991 ;
992 [label="SG_UF_ESC_RS <= 0.5\nsquared_error = 18779.895\nsamples = 403\nvalue = 753.151"] ;
572 -> 992 ;
993 [label="TP_COR_RACA_Indígina <= 0.5\nsquared_error = 18677.631\nsamples = 390\nvalue = 755.436"] ;
992 -> 993 ;
994 [label="SG_UF_ESC_MS <= 0.5\nsquared_error = 18582.785\nsamples = 389\nvalue = 756.041"] ;
993 -> 994 ;
995 [label="SG_UF_ESC_PA <= 0.5\nsquared_error = 18572.873\nsamples = 384\nvalue = 754.792"] ;
994 -> 995 ;
996 [label="TP_COR_RACA_Não declarado <= 0.5\nsquared_error = 18217.156\nsamples = 329\nvalue = 750.881"] ;
995 -> 996 ;
997 [label="SG_UF_ESC_RN <= 0.5\nsquared_error = 17832.971\nsamples = 314\nvalue = 752.675"] ;
996 -> 997 ;
998 [label="SG_UF_ESC_BA <= 0.5\nsquared_error = 17958.002\nsamples = 279\nvalue = 750.251"] ;
997 -> 998 ;
999 [label="SG_UF_ESC_TO <= 0.5\nsquared_error = 19467.764\nsamples = 162\nvalue = 742.963"] ;
998 -> 999 ;
1000 [label="SG_UF_ESC_GO <= 0.5\nsquared_error = 19727.258\nsamples = 159\nvalue = 741.887"] ;
999 -> 1000 ;
1001 [label="TP_COR_RACA_Amarela <= 0.5\nsquared_error = 19676.932\nsamples = 116\nvalue = 737.586"] ;
1000 -> 1001 ;
1002 [label="SG_UF_ESC_AP <= 0.5\nsquared_error = 19589.506\nsamples = 113\nvalue = 734.69"] ;
1001 -> 1002 ;
1003 [label="SG_UF_ESC_PB <= 0.5\nsquared_error = 19698.852\nsamples = 112\nvalue = 733.929"] ;
1002 -> 1003 ;
1004 [label="SG_UF_ESC_AL <= 0.5\nsquared_error = 21092.64\nsamples = 83\nvalue = 730.361"] ;
1003 -> 1004 ;
1005 [label="SG_UF_ESC_RO <= 0.5\nsquared_error = 14638.889\nsamples = 48\nvalue = 733.333"] ;
1004 -> 1005 ;
1006 [label="SG_UF_ESC_AC <= 0.5\nsquared_error = 14926.211\nsamples = 47\nvalue = 734.043"] ;
1005 -> 1006 ;
1007 [label="SG_UF_ESC_MT <= 0.5\nsquared_error = 13973.333\nsamples = 45\nvalue = 733.333"] ;
1006 -> 1007 ;
1008 [label="SG_UF_ESC_MA <= 0.5\nsquared_error = 15067.348\nsamples = 37\nvalue = 734.054"] ;
1007 -> 1008 ;
1009 [label="squared_error = 15130.796\nsamples = 17\nvalue = 735.294"] ;
1008 -> 1009 ;
1010 [label="squared_error = 15011.0\nsamples = 20\nvalue = 733.0"] ;
1008 -> 1010 ;
1011 [label="squared_error = 8900.0\nsamples = 8\nvalue = 730.0"] ;
1007 -> 1011 ;
1012 [label="squared_error = 36100.0\nsamples = 2\nvalue = 750.0"] ;
1006 -> 1012 ;
1013 [label="squared_error = 0.0\nsamples = 1\nvalue = 700.0"] ;
1005 -> 1013 ;
1014 [label="squared_error = 29914.776\nsamples = 35\nvalue = 726.286"] ;
1004 -> 1014 ;
1015 [label="squared_error = 15569.084\nsamples = 29\nvalue = 744.138"] ;
1003 -> 1015 ;
1016 [label="squared_error = 0.0\nsamples = 1\nvalue = 820.0"] ;
1002 -> 1016 ;
1017 [label="SG_UF_ESC_ES <= 0.5\nsquared_error = 10755.556\nsamples = 3\nvalue = 846.667"] ;
1001 -> 1017 ;
1018 [label="squared_error = 0.0\nsamples = 2\nvalue = 920.0"] ;
1017 -> 1018 ;
1019 [label="squared_error = 0.0\nsamples = 1\nvalue = 700.0"] ;
1017 -> 1019 ;
1020 [label="TP_COR_RACA_Amarela <= 0.5\nsquared_error = 19678.529\nsamples = 43\nvalue = 753.488"] ;
1000 -> 1020 ;
1021 [label="squared_error = 17507.429\nsamples = 39\nvalue = 760.513"] ;
1020 -> 1021 ;
1022 [label="squared_error = 35675.0\nsamples = 4\nvalue = 685.0"] ;
1020 -> 1022 ;
1023 [label="squared_error = 2400.0\nsamples = 3\nvalue = 800.0"] ;
999 -> 1023 ;
1024 [label="TP_COR_RACA_Amarela <= 0.5\nsquared_error = 15692.191\nsamples = 117\nvalue = 760.342"] ;
998 -> 1024 ;
1025 [label="squared_error = 15803.016\nsamples = 114\nvalue = 759.298"] ;
1024 -> 1025 ;
1026 [label="squared_error = 9866.667\nsamples = 3\nvalue = 800.0"] ;
1024 -> 1026 ;
1027 [label="squared_error = 16416.0\nsamples = 35\nvalue = 772.0"] ;
997 -> 1027 ;
1028 [label="SG_UF_ESC_GO <= 0.5\nsquared_error = 24782.222\nsamples = 15\nvalue = 713.333"] ;
996 -> 1028 ;
1029 [label="SG_UF_ESC_MA <= 0.5\nsquared_error = 21895.918\nsamples = 14\nvalue = 695.714"] ;
1028 -> 1029 ;
1030 [label="SG_UF_ESC_RO <= 0.5\nsquared_error = 17875.0\nsamples = 12\nvalue = 665.0"] ;
1029 -> 1030 ;
1031 [label="SG_UF_ESC_AL <= 0.5\nsquared_error = 16462.81\nsamples = 11\nvalue = 649.091"] ;
1030 -> 1031 ;
1032 [label="SG_UF_ESC_RN <= 0.5\nsquared_error = 15604.0\nsamples = 10\nvalue = 634.0"] ;
1031 -> 1032 ;
1033 [label="SG_UF_ESC_BA <= 0.5\nsquared_error = 16661.728\nsamples = 9\nvalue = 642.222"] ;
1032 -> 1033 ;
1034 [label="squared_error = 1866.667\nsamples = 3\nvalue = 660.0"] ;
1033 -> 1034 ;
1035 [label="squared_error = 23822.222\nsamples = 6\nvalue = 633.333"] ;
1033 -> 1035 ;
1036 [label="squared_error = 0.0\nsamples = 1\nvalue = 560.0"] ;
1032 -> 1036 ;
1037 [label="squared_error = 0.0\nsamples = 1\nvalue = 800.0"] ;
1031 -> 1037 ;
1038 [label="squared_error = 0.0\nsamples = 1\nvalue = 840.0"] ;
1030 -> 1038 ;
1039 [label="squared_error = 6400.0\nsamples = 2\nvalue = 880.0"] ;
1029 -> 1039 ;
1040 [label="squared_error = 0.0\nsamples = 1\nvalue = 960.0"] ;
1028 -> 1040 ;
1041 [label="TP_COR_RACA_Amarela <= 0.5\nsquared_error = 20062.149\nsamples = 55\nvalue = 778.182"] ;
995 -> 1041 ;
1042 [label="TP_COR_RACA_Parda <= 0.5\nsquared_error = 20928.254\nsamples = 52\nvalue = 775.769"] ;
1041 -> 1042 ;
1043 [label="squared_error = 9376.0\nsamples = 5\nvalue = 788.0"] ;
1042 -> 1043 ;
1044 [label="squared_error = 22139.611\nsamples = 47\nvalue = 774.468"] ;
1042 -> 1044 ;
1045 [label="squared_error = 3200.0\nsamples = 3\nvalue = 820.0"] ;
1041 -> 1045 ;
1046 [label="squared_error = 10016.0\nsamples = 5\nvalue = 852.0"] ;
994 -> 1046 ;
1047 [label="squared_error = 0.0\nsamples = 1\nvalue = 520.0"] ;
993 -> 1047 ;
1048 [label="TP_COR_RACA_Parda <= 0.5\nsquared_error = 16994.083\nsamples = 13\nvalue = 684.615"] ;
992 -> 1048 ;
1049 [label="squared_error = 0.0\nsamples = 1\nvalue = 680.0"] ;
1048 -> 1049 ;
1050 [label="squared_error = 18408.333\nsamples = 12\nvalue = 685.0"] ;
1048 -> 1050 ;
1051 [label="SG_UF_ESC_RN <= 0.5\nsquared_error = 18570.522\nsamples = 42\nvalue = 719.048"] ;
571 -> 1051 ;
1052 [label="SG_UF_ESC_MT <= 0.5\nsquared_error = 17463.248\nsamples = 39\nvalue = 706.667"] ;
1051 -> 1052 ;
1053 [label="SG_UF_ESC_PA <= 0.5\nsquared_error = 17287.812\nsamples = 38\nvalue = 702.632"] ;
1052 -> 1053 ;
1054 [label="SG_UF_ESC_AL <= 0.5\nsquared_error = 12910.204\nsamples = 28\nvalue = 714.286"] ;
1053 -> 1054 ;
1055 [label="SG_UF_ESC_MA <= 0.5\nsquared_error = 12732.639\nsamples = 24\nvalue = 724.167"] ;
1054 -> 1055 ;
1056 [label="TP_COR_RACA_Parda <= 0.5\nsquared_error = 13481.818\nsamples = 22\nvalue = 730.0"] ;
1055 -> 1056 ;
1057 [label="SG_UF_ESC_PB <= 0.5\nsquared_error = 3875.0\nsamples = 4\nvalue = 685.0"] ;
1056 -> 1057 ;
1058 [label="SG_UF_ESC_BA <= 0.5\nsquared_error = 1600.0\nsamples = 2\nvalue = 740.0"] ;
1057 -> 1058 ;
1059 [label="squared_error = 0.0\nsamples = 1\nvalue = 700.0"] ;
1058 -> 1059 ;
1060 [label="squared_error = 0.0\nsamples = 1\nvalue = 780.0"] ;
1058 -> 1060 ;
1061 [label="TP_COR_RACA_Amarela <= 0.5\nsquared_error = 100.0\nsamples = 2\nvalue = 630.0"] ;
1057 -> 1061 ;
1062 [label="squared_error = 0.0\nsamples = 1\nvalue = 640.0"] ;
1061 -> 1062 ;
1063 [label="squared_error = 0.0\nsamples = 1\nvalue = 620.0"] ;
1061 -> 1063 ;
1064 [label="SG_UF_ESC_BA <= 0.5\nsquared_error = 15066.667\nsamples = 18\nvalue = 740.0"] ;
1056 -> 1064 ;
1065 [label="SG_UF_ESC_PB <= 0.5\nsquared_error = 6083.951\nsamples = 9\nvalue = 762.222"] ;
1064 -> 1065 ;
1066 [label="SG_UF_ESC_GO <= 0.5\nsquared_error = 100.0\nsamples = 2\nvalue = 790.0"] ;
1065 -> 1066 ;
1067 [label="squared_error = 0.0\nsamples = 1\nvalue = 780.0"] ;
1066 -> 1067 ;
1068 [label="squared_error = 0.0\nsamples = 1\nvalue = 800.0"] ;
1066 -> 1068 ;
1069 [label="squared_error = 7510.204\nsamples = 7\nvalue = 754.286"] ;
1065 -> 1069 ;
1070 [label="squared_error = 23061.728\nsamples = 9\nvalue = 717.778"] ;
1064 -> 1070 ;
1071 [label="squared_error = 0.0\nsamples = 2\nvalue = 660.0"] ;
1055 -> 1071 ;
1072 [label="TP_COR_RACA_Amarela <= 0.5\nsquared_error = 9875.0\nsamples = 4\nvalue = 655.0"] ;
1054 -> 1072 ;
1073 [label="squared_error = 13066.667\nsamples = 3\nvalue = 660.0"] ;
1072 -> 1073 ;
1074 [label="squared_error = 0.0\nsamples = 1\nvalue = 640.0"] ;
1072 -> 1074 ;
1075 [label="squared_error = 28100.0\nsamples = 10\nvalue = 670.0"] ;
1053 -> 1075 ;
1076 [label="squared_error = 0.0\nsamples = 1\nvalue = 860.0"] ;
1052 -> 1076 ;
1077 [label="squared_error = 5066.667\nsamples = 3\nvalue = 880.0"] ;
1051 -> 1077 ;
1078 [label="TP_COR_RACA_Indígina <= 0.5\nsquared_error = 18319.46\nsamples = 518\nvalue = 745.367"] ;
570 -> 1078 ;
1079 [label="SG_UF_ESC_GO <= 0.5\nsquared_error = 18022.046\nsamples = 516\nvalue = 746.008"] ;
1078 -> 1079 ;
1080 [label="SG_UF_ESC_AP <= 0.5\nsquared_error = 17888.364\nsamples = 458\nvalue = 742.052"] ;
1079 -> 1080 ;
